<?xml version="1.0"?>
<opencv_storage>
<cascade>
  <stageType>BOOST</stageType>
  <featureType>HAAR</featureType>
  <height>20</height>
  <width>20</width>
  <stageParams>
    <boostType>GAB</boostType>
    <minHitRate>9.9500000476837158e-01</minHitRate>
    <maxFalseAlarm>5.0000000000000000e-01</maxFalseAlarm>
    <weightTrimRate>9.4999998807907104e-01</weightTrimRate>
    <maxDepth>1</maxDepth>
    <maxWeakCount>100</maxWeakCount></stageParams>
  <featureParams>
    <maxCatCount>0</maxCatCount>
    <featSize>1</featSize>
    <mode>BASIC</mode></featureParams>
  <stageNum>10</stageNum>
  <stages>
    <!-- stage 0 -->
    <_>
      <maxWeakCount>3</maxWeakCount>
      <stageThreshold>-1.8013552427291870e+00</stageThreshold>
      <weakClassifiers>
        <_>
          <internalNodes>
            0 -1 32 4.9636535346508026e-02</internalNodes>
          <leafValues>
            -9.8595786094665527e-01 1.6666667163372040e-01</leafValues></_>
        <_>
          <internalNodes>
            0 -1 14 8.4611900150775909e-02</internalNodes>
          <leafValues>
            -9.6151602268218994e-01 4.2500019073486328e-02</leafValues></_>
        <_>
          <internalNodes>
            0 -1 8 -1.6090729832649231e-01</internalNodes>
          <leafValues>
            7.3382925987243652e-01 -8.5789740085601807e-01</leafValues></_></weakClassifiers></_>
    <!-- stage 1 -->
    <_>
      <maxWeakCount>3</maxWeakCount>
      <stageThreshold>-1.7990055084228516e+00</stageThreshold>
      <weakClassifiers>
        <_>
          <internalNodes>
            0 -1 5 -1.4190731942653656e-01</internalNodes>
          <leafValues>
            -5.5348520905385001e-17 -9.8194581270217896e-01</leafValues></_>
        <_>
          <internalNodes>
            0 -1 4 -3.2730329036712646e-01</internalNodes>
          <leafValues>
            3.1628999114036560e-01 -8.9992415904998779e-01</leafValues></_>
        <_>
          <internalNodes>
            0 -1 13 2.0637662964873016e-04</internalNodes>
          <leafValues>
            -8.9908128976821899e-01 2.7412298321723938e-01</leafValues></_></weakClassifiers></_>
    <!-- stage 2 -->
    <_>
      <maxWeakCount>3</maxWeakCount>
      <stageThreshold>-1.9094911813735962e+00</stageThreshold>
      <weakClassifiers>
        <_>
          <internalNodes>
            0 -1 17 5.7725604623556137e-02</internalNodes>
          <leafValues>
            -9.7038501501083374e-01 5.0000000000000000e-01</leafValues></_>
        <_>
          <internalNodes>
            0 -1 25 6.8990811705589294e-03</internalNodes>
          <leafValues>
            -9.2405319213867188e-01 -3.9319925010204315e-02</leafValues></_>
        <_>
          <internalNodes>
            0 -1 26 4.9200886860489845e-04</internalNodes>
          <leafValues>
            -8.9978623390197754e-01 1.7226310074329376e-01</leafValues></_></weakClassifiers></_>
    <!-- stage 3 -->
    <_>
      <maxWeakCount>3</maxWeakCount>
      <stageThreshold>-1.7082670927047729e+00</stageThreshold>
      <weakClassifiers>
        <_>
          <internalNodes>
            0 -1 16 1.3100552558898926e-01</internalNodes>
          <leafValues>
            -9.7412937879562378e-01 -8.3022781358077502e-17</leafValues></_>
        <_>
          <internalNodes>
            0 -1 10 -2.0684188231825829e-02</internalNodes>
          <leafValues>
            4.1457644104957581e-01 -8.6228179931640625e-01</leafValues></_>
        <_>
          <internalNodes>
            0 -1 27 5.3736686706542969e-02</internalNodes>
          <leafValues>
            -8.4598529338836670e-01 4.4176185131072998e-01</leafValues></_></weakClassifiers></_>
    <!-- stage 4 -->
    <_>
      <maxWeakCount>3</maxWeakCount>
      <stageThreshold>-1.4793343544006348e+00</stageThreshold>
      <weakClassifiers>
        <_>
          <internalNodes>
            0 -1 31 8.7642759084701538e-02</internalNodes>
          <leafValues>
            -9.6847289800643921e-01 6.6666668653488159e-01</leafValues></_>
        <_>
          <internalNodes>
            0 -1 12 4.5712926983833313e-01</internalNodes>
          <leafValues>
            -8.9428693056106567e-01 2.6580068469047546e-01</leafValues></_>
        <_>
          <internalNodes>
            0 -1 1 -4.9036003649234772e-02</internalNodes>
          <leafValues>
            5.8293366432189941e-01 -7.7666217088699341e-01</leafValues></_></weakClassifiers></_>
    <!-- stage 5 -->
    <_>
      <maxWeakCount>3</maxWeakCount>
      <stageThreshold>-1.6762876510620117e+00</stageThreshold>
      <weakClassifiers>
        <_>
          <internalNodes>
            0 -1 34 -1.1998073756694794e-01</internalNodes>
          <leafValues>
            6.0000002384185791e-01 -9.6653544902801514e-01</leafValues></_>
        <_>
          <internalNodes>
            0 -1 7 -1.4738742262125015e-02</internalNodes>
          <leafValues>
            2.1635353565216064e-01 -8.8338506221771240e-01</leafValues></_>
        <_>
          <internalNodes>
            0 -1 15 3.3020943403244019e-02</internalNodes>
          <leafValues>
            -9.1301029920578003e-01 1.7363278567790985e-01</leafValues></_></weakClassifiers></_>
    <!-- stage 6 -->
    <_>
      <maxWeakCount>4</maxWeakCount>
      <stageThreshold>-2.2615115642547607e+00</stageThreshold>
      <weakClassifiers>
        <_>
          <internalNodes>
            0 -1 28 1.3427909463644028e-02</internalNodes>
          <leafValues>
            -9.6844184398651123e-01 4.2857143282890320e-01</leafValues></_>
        <_>
          <internalNodes>
            0 -1 23 -1.9303446635603905e-02</internalNodes>
          <leafValues>
            4.3404597043991089e-01 -8.4810155630111694e-01</leafValues></_>
        <_>
          <internalNodes>
            0 -1 3 -3.2155350781977177e-03</internalNodes>
          <leafValues>
            2.4944366514682770e-01 -8.4871679544448853e-01</leafValues></_>
        <_>
          <internalNodes>
            0 -1 29 1.2855624780058861e-02</internalNodes>
          <leafValues>
            -6.9441181421279907e-01 4.5851400494575500e-01</leafValues></_></weakClassifiers></_>
    <!-- stage 7 -->
    <_>
      <maxWeakCount>5</maxWeakCount>
      <stageThreshold>-1.7367414236068726e+00</stageThreshold>
      <weakClassifiers>
        <_>
          <internalNodes>
            0 -1 2 1.7802461981773376e-02</internalNodes>
          <leafValues>
            -9.6841067075729370e-01 2.5000000000000000e-01</leafValues></_>
        <_>
          <internalNodes>
            0 -1 33 -1.0730399750173092e-02</internalNodes>
          <leafValues>
            6.4233422279357910e-01 -8.4403127431869507e-01</leafValues></_>
        <_>
          <internalNodes>
            0 -1 24 -3.1611245125532150e-02</internalNodes>
          <leafValues>
            2.9137483239173889e-01 -7.9587000608444214e-01</leafValues></_>
        <_>
          <internalNodes>
            0 -1 11 -1.3974152505397797e-02</internalNodes>
          <leafValues>
            3.8354995846748352e-01 -8.0773478746414185e-01</leafValues></_>
        <_>
          <internalNodes>
            0 -1 18 4.0833149105310440e-03</internalNodes>
          <leafValues>
            -5.9922426939010620e-01 5.9531283378601074e-01</leafValues></_></weakClassifiers></_>
    <!-- stage 8 -->
    <_>
      <maxWeakCount>4</maxWeakCount>
      <stageThreshold>-1.8535532951354980e+00</stageThreshold>
      <weakClassifiers>
        <_>
          <internalNodes>
            0 -1 6 -1.7543761059641838e-02</internalNodes>
          <leafValues>
            1. -9.6463656425476074e-01</leafValues></_>
        <_>
          <internalNodes>
            0 -1 22 2.0477239042520523e-02</internalNodes>
          <leafValues>
            -8.7921458482742310e-01 2.6501014828681946e-01</leafValues></_>
        <_>
          <internalNodes>
            0 -1 0 2.9590776562690735e-01</internalNodes>
          <leafValues>
            -6.4073663949966431e-01 7.0357072353363037e-01</leafValues></_>
        <_>
          <internalNodes>
            0 -1 19 -5.8341715484857559e-03</internalNodes>
          <leafValues>
            6.3103437423706055e-01 -6.2633258104324341e-01</leafValues></_></weakClassifiers></_>
    <!-- stage 9 -->
    <_>
      <maxWeakCount>4</maxWeakCount>
      <stageThreshold>-2.2039732933044434e+00</stageThreshold>
      <weakClassifiers>
        <_>
          <internalNodes>
            0 -1 20 1.9225001335144043e-02</internalNodes>
          <leafValues>
            -9.6850395202636719e-01 1.</leafValues></_>
        <_>
          <internalNodes>
            0 -1 30 -1.3764571398496628e-02</internalNodes>
          <leafValues>
            8.4080576896667480e-01 -8.5779124498367310e-01</leafValues></_>
        <_>
          <internalNodes>
            0 -1 9 1.4152466319501400e-03</internalNodes>
          <leafValues>
            -7.4730426073074341e-01 3.5687971115112305e-01</leafValues></_>
        <_>
          <internalNodes>
            0 -1 21 9.1288350522518158e-02</internalNodes>
          <leafValues>
            -7.3455780744552612e-01 5.0348216295242310e-01</leafValues></_></weakClassifiers></_></stages>
  <features>
    <_>
      <rects>
        <_>
          0 1 20 12 -1.</_>
        <_>
          0 5 20 4 3.</_></rects>
      <tilted>0</tilted></_>
    <_>
      <rects>
        <_>
          0 12 6 8 -1.</_>
        <_>
          3 12 3 8 2.</_></rects>
      <tilted>0</tilted></_>
    <_>
      <rects>
        <_>
          0 17 4 2 -1.</_>
        <_>
          2 17 2 2 2.</_></rects>
      <tilted>0</tilted></_>
    <_>
      <rects>
        <_>
          1 0 2 6 -1.</_>
        <_>
          1 0 1 3 2.</_>
        <_>
          2 3 1 3 2.</_></rects>
      <tilted>0</tilted></_>
    <_>
      <rects>
        <_>
          1 0 18 12 -1.</_>
        <_>
          1 4 18 4 3.</_></rects>
      <tilted>0</tilted></_>
    <_>
      <rects>
        <_>
          1 1 17 6 -1.</_>
        <_>
          1 3 17 2 3.</_></rects>
      <tilted>0</tilted></_>
    <_>
      <rects>
        <_>
          1 6 2 3 -1.</_>
        <_>
          2 6 1 3 2.</_></rects>
      <tilted>0</tilted></_>
    <_>
      <rects>
        <_>
          2 0 5 2 -1.</_>
        <_>
          2 1 5 1 2.</_></rects>
      <tilted>0</tilted></_>
    <_>
      <rects>
        <_>
          2 0 10 18 -1.</_>
        <_>
          2 0 5 9 2.</_>
        <_>
          7 9 5 9 2.</_></rects>
      <tilted>0</tilted></_>
    <_>
      <rects>
        <_>
          2 1 2 4 -1.</_>
        <_>
          2 1 1 2 2.</_>
        <_>
          3 3 1 2 2.</_></rects>
      <tilted>0</tilted></_>
    <_>
      <rects>
        <_>
          2 2 3 3 -1.</_>
        <_>
          2 3 3 1 3.</_></rects>
      <tilted>0</tilted></_>
    <_>
      <rects>
        <_>
          2 3 6 3 -1.</_>
        <_>
          4 3 2 3 3.</_></rects>
      <tilted>0</tilted></_>
    <_>
      <rects>
        <_>
          2 3 17 15 -1.</_>
        <_>
          2 8 17 5 3.</_></rects>
      <tilted>0</tilted></_>
    <_>
      <rects>
        <_>
          2 5 2 2 -1.</_>
        <_>
          2 5 1 1 2.</_>
        <_>
          3 6 1 1 2.</_></rects>
      <tilted>0</tilted></_>
    <_>
      <rects>
        <_>
          3 4 11 9 -1.</_>
        <_>
          3 7 11 3 3.</_></rects>
      <tilted>0</tilted></_>
    <_>
      <rects>
        <_>
          4 0 2 16 -1.</_>
        <_>
          4 8 2 8 2.</_></rects>
      <tilted>0</tilted></_>
    <_>
      <rects>
        <_>
          4 2 12 3 -1.</_>
        <_>
          8 2 4 3 3.</_></rects>
      <tilted>0</tilted></_>
    <_>
      <rects>
        <_>
          4 3 12 1 -1.</_>
        <_>
          8 3 4 1 3.</_></rects>
      <tilted>0</tilted></_>
    <_>
      <rects>
        <_>
          5 10 3 3 -1.</_>
        <_>
          6 10 1 3 3.</_></rects>
      <tilted>0</tilted></_>
    <_>
      <rects>
        <_>
          5 16 4 3 -1.</_>
        <_>
          5 17 4 1 3.</_></rects>
      <tilted>0</tilted></_>
    <_>
      <rects>
        <_>
          5 16 9 3 -1.</_>
        <_>
          5 17 9 1 3.</_></rects>
      <tilted>0</tilted></_>
    <_>
      <rects>
        <_>
          6 0 12 16 -1.</_>
        <_>
          6 0 6 8 2.</_>
        <_>
          12 8 6 8 2.</_></rects>
      <tilted>0</tilted></_>
    <_>
      <rects>
        <_>
          7 15 8 3 -1.</_>
        <_>
          7 16 8 1 3.</_></rects>
      <tilted>0</tilted></_>
    <_>
      <rects>
        <_>
          7 16 4 3 -1.</_>
        <_>
          7 17 4 1 3.</_></rects>
      <tilted>0</tilted></_>
    <_>
      <rects>
        <_>
          8 0 10 4 -1.</_>
        <_>
          8 2 10 2 2.</_></rects>
      <tilted>0</tilted></_>
    <_>
      <rects>
        <_>
          8 3 2 6 -1.</_>
        <_>
          9 3 1 6 2.</_></rects>
      <tilted>0</tilted></_>
    <_>
      <rects>
        <_>
          10 1 3 1 -1.</_>
        <_>
          11 1 1 1 3.</_></rects>
      <tilted>0</tilted></_>
    <_>
      <rects>
        <_>
          10 4 6 16 -1.</_>
        <_>
          10 4 3 8 2.</_>
        <_>
          13 12 3 8 2.</_></rects>
      <tilted>0</tilted></_>
    <_>
      <rects>
        <_>
          10 15 2 3 -1.</_>
        <_>
          10 16 2 1 3.</_></rects>
      <tilted>0</tilted></_>
    <_>
      <rects>
        <_>
          11 10 8 3 -1.</_>
        <_>
          15 10 4 3 2.</_></rects>
      <tilted>0</tilted></_>
    <_>
      <rects>
        <_>
          14 1 2 3 -1.</_>
        <_>
          14 2 2 1 3.</_></rects>
      <tilted>0</tilted></_>
    <_>
      <rects>
        <_>
          14 1 3 8 -1.</_>
        <_>
          14 5 3 4 2.</_></rects>
      <tilted>0</tilted></_>
    <_>
      <rects>
        <_>
          14 2 2 10 -1.</_>
        <_>
          14 7 2 5 2.</_></rects>
      <tilted>0</tilted></_>
    <_>
      <rects>
        <_>
          14 3 3 2 -1.</_>
        <_>
          15 3 1 2 3.</_></rects>
      <tilted>0</tilted></_>
    <_>
      <rects>
        <_>
          17 8 3 12 -1.</_>
        <_>
          17 14 3 6 2.</_></rects>
      <tilted>0</tilted></_></features></cascade>
</opencv_storage>
