<?xml version="1.0"?>
<opencv_storage>
<cascade>
  <stageType>BOOST</stageType>
  <featureType>HAAR</featureType>
  <height>24</height>
  <width>24</width>
  <stageParams>
    <boostType>GAB</boostType>
    <minHitRate>9.9500000476837158e-01</minHitRate>
    <maxFalseAlarm>5.0000000000000000e-01</maxFalseAlarm>
    <weightTrimRate>9.4999998807907104e-01</weightTrimRate>
    <maxDepth>1</maxDepth>
    <maxWeakCount>100</maxWeakCount></stageParams>
  <featureParams>
    <maxCatCount>0</maxCatCount>
    <featSize>1</featSize>
    <mode>BASIC</mode></featureParams>
  <stageNum>20</stageNum>
  <stages>
    <!-- stage 0 -->
    <_>
      <maxWeakCount>4</maxWeakCount>
      <stageThreshold>-1.6689108610153198e+00</stageThreshold>
      <weakClassifiers>
        <_>
          <internalNodes>
            0 -1 64 6.7476332187652588e-02</internalNodes>
          <leafValues>
            -8.6819481849670410e-01 3.9726027846336365e-01</leafValues></_>
        <_>
          <internalNodes>
            0 -1 66 1.4598017558455467e-02</internalNodes>
          <leafValues>
            -7.3948794603347778e-01 2.8377327322959900e-01</leafValues></_>
        <_>
          <internalNodes>
            0 -1 57 1.9115066155791283e-02</internalNodes>
          <leafValues>
            -5.5200010538101196e-01 4.1946336627006531e-01</leafValues></_>
        <_>
          <internalNodes>
            0 -1 142 2.4259904399514198e-02</internalNodes>
          <leafValues>
            -4.8069143295288086e-01 5.5927044153213501e-01</leafValues></_></weakClassifiers></_>
    <!-- stage 1 -->
    <_>
      <maxWeakCount>6</maxWeakCount>
      <stageThreshold>-1.6278665065765381e+00</stageThreshold>
      <weakClassifiers>
        <_>
          <internalNodes>
            0 -1 54 -8.1486999988555908e-02</internalNodes>
          <leafValues>
            6.2962961196899414e-01 -8.5741090774536133e-01</leafValues></_>
        <_>
          <internalNodes>
            0 -1 87 -8.2328799180686474e-05</internalNodes>
          <leafValues>
            2.0895810425281525e-01 -7.3906141519546509e-01</leafValues></_>
        <_>
          <internalNodes>
            0 -1 128 -5.9291247453074902e-05</internalNodes>
          <leafValues>
            3.4674638509750366e-01 -5.9273809194564819e-01</leafValues></_>
        <_>
          <internalNodes>
            0 -1 131 -2.8694132197415456e-05</internalNodes>
          <leafValues>
            4.6213093400001526e-01 -4.9042701721191406e-01</leafValues></_>
        <_>
          <internalNodes>
            0 -1 25 -1.1068880558013916e-02</internalNodes>
          <leafValues>
            6.8546277284622192e-01 -3.1749191880226135e-01</leafValues></_>
        <_>
          <internalNodes>
            0 -1 27 1.4941149856895208e-03</internalNodes>
          <leafValues>
            -5.2277952432632446e-01 4.6856242418289185e-01</leafValues></_></weakClassifiers></_>
    <!-- stage 2 -->
    <_>
      <maxWeakCount>4</maxWeakCount>
      <stageThreshold>-1.5716751813888550e+00</stageThreshold>
      <weakClassifiers>
        <_>
          <internalNodes>
            0 -1 63 8.6802601814270020e-02</internalNodes>
          <leafValues>
            -8.6990290880203247e-01 1.7777778208255768e-01</leafValues></_>
        <_>
          <internalNodes>
            0 -1 104 5.2126113587291911e-05</internalNodes>
          <leafValues>
            -6.9084829092025757e-01 2.9126885533332825e-01</leafValues></_>
        <_>
          <internalNodes>
            0 -1 103 2.8126643883297220e-05</internalNodes>
          <leafValues>
            -5.2439278364181519e-01 5.0900512933731079e-01</leafValues></_>
        <_>
          <internalNodes>
            0 -1 115 -2.6454346880200319e-05</internalNodes>
          <leafValues>
            5.5444377660751343e-01 -4.6864831447601318e-01</leafValues></_></weakClassifiers></_>
    <!-- stage 3 -->
    <_>
      <maxWeakCount>7</maxWeakCount>
      <stageThreshold>-1.5849061012268066e+00</stageThreshold>
      <weakClassifiers>
        <_>
          <internalNodes>
            0 -1 48 -7.8315906226634979e-02</internalNodes>
          <leafValues>
            4.8936170339584351e-01 -8.4156572818756104e-01</leafValues></_>
        <_>
          <internalNodes>
            0 -1 141 1.1016973853111267e-01</internalNodes>
          <leafValues>
            -4.6616145968437195e-01 7.0686203241348267e-01</leafValues></_>
        <_>
          <internalNodes>
            0 -1 44 1.5750806778669357e-02</internalNodes>
          <leafValues>
            1.9493380188941956e-01 -8.0129235982894897e-01</leafValues></_>
        <_>
          <internalNodes>
            0 -1 39 -4.1302507743239403e-03</internalNodes>
          <leafValues>
            3.1059157848358154e-01 -5.3957670927047729e-01</leafValues></_>
        <_>
          <internalNodes>
            0 -1 74 3.0818482628092170e-05</internalNodes>
          <leafValues>
            -4.6830070018768311e-01 3.2069480419158936e-01</leafValues></_>
        <_>
          <internalNodes>
            0 -1 51 -2.2055987268686295e-02</internalNodes>
          <leafValues>
            -7.0631265640258789e-01 2.5239011645317078e-01</leafValues></_>
        <_>
          <internalNodes>
            0 -1 80 -4.6909525990486145e-03</internalNodes>
          <leafValues>
            5.2885949611663818e-01 -3.5956302285194397e-01</leafValues></_></weakClassifiers></_>
    <!-- stage 4 -->
    <_>
      <maxWeakCount>7</maxWeakCount>
      <stageThreshold>-1.7624568939208984e+00</stageThreshold>
      <weakClassifiers>
        <_>
          <internalNodes>
            0 -1 113 -3.3172795083373785e-03</internalNodes>
          <leafValues>
            -2.6548672467470169e-02 -8.7090367078781128e-01</leafValues></_>
        <_>
          <internalNodes>
            0 -1 101 1.7192799132317305e-03</internalNodes>
          <leafValues>
            -5.7973068952560425e-01 3.5383933782577515e-01</leafValues></_>
        <_>
          <internalNodes>
            0 -1 35 -2.2310512140393257e-02</internalNodes>
          <leafValues>
            -7.2958111763000488e-01 2.7084192633628845e-01</leafValues></_>
        <_>
          <internalNodes>
            0 -1 29 5.0072907470166683e-03</internalNodes>
          <leafValues>
            -4.0247064828872681e-01 4.3875113129615784e-01</leafValues></_>
        <_>
          <internalNodes>
            0 -1 118 -2.2773554082959890e-03</internalNodes>
          <leafValues>
            5.4250192642211914e-01 -3.0542156100273132e-01</leafValues></_>
        <_>
          <internalNodes>
            0 -1 42 1.8789269030094147e-02</internalNodes>
          <leafValues>
            -2.8356599807739258e-01 5.5680269002914429e-01</leafValues></_>
        <_>
          <internalNodes>
            0 -1 125 -1.2941937893629074e-03</internalNodes>
          <leafValues>
            5.8339202404022217e-01 -2.7992847561836243e-01</leafValues></_></weakClassifiers></_>
    <!-- stage 5 -->
    <_>
      <maxWeakCount>9</maxWeakCount>
      <stageThreshold>-1.8438498973846436e+00</stageThreshold>
      <weakClassifiers>
        <_>
          <internalNodes>
            0 -1 7 -1.3303622603416443e-01</internalNodes>
          <leafValues>
            6.8493150174617767e-02 -8.4527218341827393e-01</leafValues></_>
        <_>
          <internalNodes>
            0 -1 50 -6.2591820955276489e-02</internalNodes>
          <leafValues>
            3.2848992943763733e-01 -5.3866642713546753e-01</leafValues></_>
        <_>
          <internalNodes>
            0 -1 108 5.7232966646552086e-03</internalNodes>
          <leafValues>
            -5.1166588068008423e-01 3.1285041570663452e-01</leafValues></_>
        <_>
          <internalNodes>
            0 -1 143 1.4685709029436111e-03</internalNodes>
          <leafValues>
            1.4711453020572662e-01 -9.1406059265136719e-01</leafValues></_>
        <_>
          <internalNodes>
            0 -1 0 -4.5436370419338346e-04</internalNodes>
          <leafValues>
            -7.9469370841979980e-01 1.7619203031063080e-01</leafValues></_>
        <_>
          <internalNodes>
            0 -1 37 1.7953438684344292e-02</internalNodes>
          <leafValues>
            -2.4220384657382965e-01 6.7702227830886841e-01</leafValues></_>
        <_>
          <internalNodes>
            0 -1 4 -8.4338560700416565e-02</internalNodes>
          <leafValues>
            7.8223842382431030e-01 -1.7896896600723267e-01</leafValues></_>
        <_>
          <internalNodes>
            0 -1 82 -8.8549047708511353e-02</internalNodes>
          <leafValues>
            7.0387327671051025e-01 -1.7216391861438751e-01</leafValues></_>
        <_>
          <internalNodes>
            0 -1 114 1.3072542846202850e-02</internalNodes>
          <leafValues>
            -3.2686048746109009e-01 4.6815422177314758e-01</leafValues></_></weakClassifiers></_>
    <!-- stage 6 -->
    <_>
      <maxWeakCount>6</maxWeakCount>
      <stageThreshold>-1.8182073831558228e+00</stageThreshold>
      <weakClassifiers>
        <_>
          <internalNodes>
            0 -1 10 -3.1928300857543945e-02</internalNodes>
          <leafValues>
            1.0588235408067703e-01 -8.5893720388412476e-01</leafValues></_>
        <_>
          <internalNodes>
            0 -1 139 -3.2604187726974487e-02</internalNodes>
          <leafValues>
            6.7553299665451050e-01 -5.2913516759872437e-01</leafValues></_>
        <_>
          <internalNodes>
            0 -1 135 9.5086693763732910e-02</internalNodes>
          <leafValues>
            -3.0015105009078979e-01 6.5975904464721680e-01</leafValues></_>
        <_>
          <internalNodes>
            0 -1 70 1.9181951880455017e-02</internalNodes>
          <leafValues>
            -5.0186395645141602e-01 4.1795182228088379e-01</leafValues></_>
        <_>
          <internalNodes>
            0 -1 55 1.5898387879133224e-02</internalNodes>
          <leafValues>
            -3.1974217295646667e-01 4.4985917210578918e-01</leafValues></_>
        <_>
          <internalNodes>
            0 -1 71 -7.1651205420494080e-02</internalNodes>
          <leafValues>
            7.1876764297485352e-01 -2.2819362580776215e-01</leafValues></_></weakClassifiers></_>
    <!-- stage 7 -->
    <_>
      <maxWeakCount>8</maxWeakCount>
      <stageThreshold>-1.5740751028060913e+00</stageThreshold>
      <weakClassifiers>
        <_>
          <internalNodes>
            0 -1 122 5.9534262865781784e-02</internalNodes>
          <leafValues>
            -8.4689921140670776e-01 -6.8181820213794708e-02</leafValues></_>
        <_>
          <internalNodes>
            0 -1 45 -9.4017768278717995e-03</internalNodes>
          <leafValues>
            4.5829886198043823e-01 -4.9119180440902710e-01</leafValues></_>
        <_>
          <internalNodes>
            0 -1 97 5.4390177130699158e-02</internalNodes>
          <leafValues>
            -2.6136407256126404e-01 6.1584794521331787e-01</leafValues></_>
        <_>
          <internalNodes>
            0 -1 151 2.3747613886371255e-04</internalNodes>
          <leafValues>
            2.3186033964157104e-01 -6.3466382026672363e-01</leafValues></_>
        <_>
          <internalNodes>
            0 -1 127 2.6875110343098640e-02</internalNodes>
          <leafValues>
            -2.1570098400115967e-01 6.8466198444366455e-01</leafValues></_>
        <_>
          <internalNodes>
            0 -1 105 7.2139007970690727e-03</internalNodes>
          <leafValues>
            2.5972056388854980e-01 -7.5424689054489136e-01</leafValues></_>
        <_>
          <internalNodes>
            0 -1 106 -1.2234187452122569e-03</internalNodes>
          <leafValues>
            -9.7979015111923218e-01 1.4206796884536743e-01</leafValues></_>
        <_>
          <internalNodes>
            0 -1 146 3.8784317672252655e-02</internalNodes>
          <leafValues>
            -2.7896338701248169e-01 5.5373466014862061e-01</leafValues></_></weakClassifiers></_>
    <!-- stage 8 -->
    <_>
      <maxWeakCount>8</maxWeakCount>
      <stageThreshold>-1.7853236198425293e+00</stageThreshold>
      <weakClassifiers>
        <_>
          <internalNodes>
            0 -1 96 -7.6171979308128357e-02</internalNodes>
          <leafValues>
            2.3999999463558197e-01 -8.3364486694335938e-01</leafValues></_>
        <_>
          <internalNodes>
            0 -1 15 -3.1047910451889038e-02</internalNodes>
          <leafValues>
            5.2701610326766968e-01 -4.7743186354637146e-01</leafValues></_>
        <_>
          <internalNodes>
            0 -1 136 -2.7137316763401031e-02</internalNodes>
          <leafValues>
            5.7997065782546997e-01 -2.5845393538475037e-01</leafValues></_>
        <_>
          <internalNodes>
            0 -1 18 -2.6348573155701160e-03</internalNodes>
          <leafValues>
            -8.0173856019973755e-01 2.0053209364414215e-01</leafValues></_>
        <_>
          <internalNodes>
            0 -1 31 -2.7834720909595490e-02</internalNodes>
          <leafValues>
            4.7921061515808105e-01 -3.0344393849372864e-01</leafValues></_>
        <_>
          <internalNodes>
            0 -1 107 1.8713048193603754e-03</internalNodes>
          <leafValues>
            2.2063167393207550e-01 -8.4496915340423584e-01</leafValues></_>
        <_>
          <internalNodes>
            0 -1 36 2.1512461826205254e-03</internalNodes>
          <leafValues>
            -3.9217719435691833e-01 4.0319970250129700e-01</leafValues></_>
        <_>
          <internalNodes>
            0 -1 155 3.0458052060566843e-04</internalNodes>
          <leafValues>
            1.8972721695899963e-01 -7.2616750001907349e-01</leafValues></_></weakClassifiers></_>
    <!-- stage 9 -->
    <_>
      <maxWeakCount>9</maxWeakCount>
      <stageThreshold>-2.0409588813781738e+00</stageThreshold>
      <weakClassifiers>
        <_>
          <internalNodes>
            0 -1 2 -1.4319937676191330e-02</internalNodes>
          <leafValues>
            -1.7647059261798859e-01 -8.3574879169464111e-01</leafValues></_>
        <_>
          <internalNodes>
            0 -1 112 7.2620548307895660e-03</internalNodes>
          <leafValues>
            -5.0897866487503052e-01 2.4379269778728485e-01</leafValues></_>
        <_>
          <internalNodes>
            0 -1 110 -3.9795292541384697e-03</internalNodes>
          <leafValues>
            4.2900422215461731e-01 -2.9161068797111511e-01</leafValues></_>
        <_>
          <internalNodes>
            0 -1 34 1.4566516876220703e-01</internalNodes>
          <leafValues>
            1.3604308664798737e-01 -8.7135869264602661e-01</leafValues></_>
        <_>
          <internalNodes>
            0 -1 92 2.2816380485892296e-02</internalNodes>
          <leafValues>
            -1.8738593161106110e-01 7.1942508220672607e-01</leafValues></_>
        <_>
          <internalNodes>
            0 -1 60 1.1792087461799383e-03</internalNodes>
          <leafValues>
            -2.5523591041564941e-01 4.6518903970718384e-01</leafValues></_>
        <_>
          <internalNodes>
            0 -1 1 1.2434576638042927e-03</internalNodes>
          <leafValues>
            1.4447307586669922e-01 -8.6560738086700439e-01</leafValues></_>
        <_>
          <internalNodes>
            0 -1 8 -5.5825606978032738e-05</internalNodes>
          <leafValues>
            -5.6982588768005371e-01 2.5304839015007019e-01</leafValues></_>
        <_>
          <internalNodes>
            0 -1 150 1.5372128473245539e-05</internalNodes>
          <leafValues>
            -4.9556341767311096e-01 2.5682222843170166e-01</leafValues></_></weakClassifiers></_>
    <!-- stage 10 -->
    <_>
      <maxWeakCount>8</maxWeakCount>
      <stageThreshold>-1.5547424554824829e+00</stageThreshold>
      <weakClassifiers>
        <_>
          <internalNodes>
            0 -1 13 -6.7311212420463562e-02</internalNodes>
          <leafValues>
            5.0000000000000000e-01 -8.0909091234207153e-01</leafValues></_>
        <_>
          <internalNodes>
            0 -1 9 -2.8800591826438904e-02</internalNodes>
          <leafValues>
            2.3991145193576813e-01 -4.9864307045936584e-01</leafValues></_>
        <_>
          <internalNodes>
            0 -1 126 -1.3482369249686599e-03</internalNodes>
          <leafValues>
            2.1896417438983917e-01 -5.1423871517181396e-01</leafValues></_>
        <_>
          <internalNodes>
            0 -1 147 -2.8908379375934601e-02</internalNodes>
          <leafValues>
            6.6953074932098389e-01 -1.8960604071617126e-01</leafValues></_>
        <_>
          <internalNodes>
            0 -1 93 -1.0875246487557888e-02</internalNodes>
          <leafValues>
            4.1550701856613159e-01 -3.0087044835090637e-01</leafValues></_>
        <_>
          <internalNodes>
            0 -1 23 2.6909193024039268e-02</internalNodes>
          <leafValues>
            -2.0758344233036041e-01 5.9061270952224731e-01</leafValues></_>
        <_>
          <internalNodes>
            0 -1 73 9.0567909181118011e-02</internalNodes>
          <leafValues>
            -2.1391011774539948e-01 6.1395293474197388e-01</leafValues></_>
        <_>
          <internalNodes>
            0 -1 61 -8.1748984754085541e-02</internalNodes>
          <leafValues>
            5.0986814498901367e-01 -2.7038002014160156e-01</leafValues></_></weakClassifiers></_>
    <!-- stage 11 -->
    <_>
      <maxWeakCount>8</maxWeakCount>
      <stageThreshold>-1.4987773895263672e+00</stageThreshold>
      <weakClassifiers>
        <_>
          <internalNodes>
            0 -1 46 -1.2814754620194435e-02</internalNodes>
          <leafValues>
            -2.6530611515045166e-01 -8.3561640977859497e-01</leafValues></_>
        <_>
          <internalNodes>
            0 -1 12 5.7618893682956696e-02</internalNodes>
          <leafValues>
            -4.3575277924537659e-01 3.4814998507499695e-01</leafValues></_>
        <_>
          <internalNodes>
            0 -1 16 3.2385952770709991e-02</internalNodes>
          <leafValues>
            1.1583717912435532e-01 -8.7399500608444214e-01</leafValues></_>
        <_>
          <internalNodes>
            0 -1 84 1.0736439377069473e-02</internalNodes>
          <leafValues>
            -3.7458896636962891e-01 3.5441482067108154e-01</leafValues></_>
        <_>
          <internalNodes>
            0 -1 3 -1.2905473704449832e-04</internalNodes>
          <leafValues>
            -5.4983121156692505e-01 1.9380632042884827e-01</leafValues></_>
        <_>
          <internalNodes>
            0 -1 17 1.2505499180406332e-03</internalNodes>
          <leafValues>
            1.6414794325828552e-01 -7.3961615562438965e-01</leafValues></_>
        <_>
          <internalNodes>
            0 -1 14 -7.6293557882308960e-02</internalNodes>
          <leafValues>
            5.3493654727935791e-01 -2.4566717445850372e-01</leafValues></_>
        <_>
          <internalNodes>
            0 -1 83 -6.3810020685195923e-02</internalNodes>
          <leafValues>
            -7.2506219148635864e-01 1.7988488078117371e-01</leafValues></_></weakClassifiers></_>
    <!-- stage 12 -->
    <_>
      <maxWeakCount>7</maxWeakCount>
      <stageThreshold>-1.4843857288360596e+00</stageThreshold>
      <weakClassifiers>
        <_>
          <internalNodes>
            0 -1 123 8.0013230443000793e-02</internalNodes>
          <leafValues>
            -8.3446931838989258e-01 -2.4731183052062988e-01</leafValues></_>
        <_>
          <internalNodes>
            0 -1 30 -1.9051492214202881e-02</internalNodes>
          <leafValues>
            3.2038515806198120e-01 -4.5545843243598938e-01</leafValues></_>
        <_>
          <internalNodes>
            0 -1 154 2.0081884576939046e-04</internalNodes>
          <leafValues>
            1.5745386481285095e-01 -6.2597578763961792e-01</leafValues></_>
        <_>
          <internalNodes>
            0 -1 68 2.6669707149267197e-03</internalNodes>
          <leafValues>
            -2.6202213764190674e-01 4.3785008788108826e-01</leafValues></_>
        <_>
          <internalNodes>
            0 -1 133 -3.0343752354383469e-02</internalNodes>
          <leafValues>
            5.2869284152984619e-01 -2.1064771711826324e-01</leafValues></_>
        <_>
          <internalNodes>
            0 -1 124 -1.3864673674106598e-02</internalNodes>
          <leafValues>
            5.2198046445846558e-01 -2.1197704970836639e-01</leafValues></_>
        <_>
          <internalNodes>
            0 -1 69 5.0734234973788261e-03</internalNodes>
          <leafValues>
            -2.5442248582839966e-01 4.6166834235191345e-01</leafValues></_></weakClassifiers></_>
    <!-- stage 13 -->
    <_>
      <maxWeakCount>10</maxWeakCount>
      <stageThreshold>-1.7680460214614868e+00</stageThreshold>
      <weakClassifiers>
        <_>
          <internalNodes>
            0 -1 24 -2.2043680772185326e-02</internalNodes>
          <leafValues>
            4.2857143282890320e-01 -8.0891722440719604e-01</leafValues></_>
        <_>
          <internalNodes>
            0 -1 47 -5.3034275770187378e-03</internalNodes>
          <leafValues>
            1.6790878772735596e-01 -4.8175618052482605e-01</leafValues></_>
        <_>
          <internalNodes>
            0 -1 77 2.6457505300641060e-03</internalNodes>
          <leafValues>
            -4.1071197390556335e-01 2.5186592340469360e-01</leafValues></_>
        <_>
          <internalNodes>
            0 -1 59 5.5490820668637753e-03</internalNodes>
          <leafValues>
            1.6056096553802490e-01 -7.1985715627670288e-01</leafValues></_>
        <_>
          <internalNodes>
            0 -1 91 -3.6156109999865294e-03</internalNodes>
          <leafValues>
            -9.7297686338424683e-01 1.0593833029270172e-01</leafValues></_>
        <_>
          <internalNodes>
            0 -1 58 4.4435993186198175e-04</internalNodes>
          <leafValues>
            -2.9827556014060974e-01 3.2588040828704834e-01</leafValues></_>
        <_>
          <internalNodes>
            0 -1 89 1.8316878704354167e-03</internalNodes>
          <leafValues>
            -2.7965420484542847e-01 3.8420209288597107e-01</leafValues></_>
        <_>
          <internalNodes>
            0 -1 0 -1.8401918350718915e-04</internalNodes>
          <leafValues>
            -6.5827602148056030e-01 1.5646634995937347e-01</leafValues></_>
        <_>
          <internalNodes>
            0 -1 21 -8.9056586148217320e-05</internalNodes>
          <leafValues>
            -5.4810923337936401e-01 1.9085609912872314e-01</leafValues></_>
        <_>
          <internalNodes>
            0 -1 32 5.5532541591674089e-04</internalNodes>
          <leafValues>
            1.3189087808132172e-01 -7.2670865058898926e-01</leafValues></_></weakClassifiers></_>
    <!-- stage 14 -->
    <_>
      <maxWeakCount>8</maxWeakCount>
      <stageThreshold>-1.5380234718322754e+00</stageThreshold>
      <weakClassifiers>
        <_>
          <internalNodes>
            0 -1 98 -4.1527029126882553e-02</internalNodes>
          <leafValues>
            8.1818181276321411e-01 -8.0162310600280762e-01</leafValues></_>
        <_>
          <internalNodes>
            0 -1 121 -2.7641836553812027e-02</internalNodes>
          <leafValues>
            3.6917027831077576e-01 -4.3870496749877930e-01</leafValues></_>
        <_>
          <internalNodes>
            0 -1 100 1.4855056069791317e-03</internalNodes>
          <leafValues>
            -3.4044024348258972e-01 3.7772291898727417e-01</leafValues></_>
        <_>
          <internalNodes>
            0 -1 43 3.1735889613628387e-02</internalNodes>
          <leafValues>
            1.1894001066684723e-01 -8.8785719871520996e-01</leafValues></_>
        <_>
          <internalNodes>
            0 -1 140 -3.9880754775367677e-04</internalNodes>
          <leafValues>
            3.1162092089653015e-01 -3.8238266110420227e-01</leafValues></_>
        <_>
          <internalNodes>
            0 -1 52 -3.4735646098852158e-02</internalNodes>
          <leafValues>
            -8.9984720945358276e-01 8.4659233689308167e-02</leafValues></_>
        <_>
          <internalNodes>
            0 -1 145 5.2896176930516958e-04</internalNodes>
          <leafValues>
            1.3910394906997681e-01 -7.1954941749572754e-01</leafValues></_>
        <_>
          <internalNodes>
            0 -1 56 -6.3382356893271208e-04</internalNodes>
          <leafValues>
            2.4707414209842682e-01 -3.9223411679267883e-01</leafValues></_></weakClassifiers></_>
    <!-- stage 15 -->
    <_>
      <maxWeakCount>9</maxWeakCount>
      <stageThreshold>-1.5356667041778564e+00</stageThreshold>
      <weakClassifiers>
        <_>
          <internalNodes>
            0 -1 6 -6.0836344957351685e-02</internalNodes>
          <leafValues>
            -4.0476882209032982e-17 -8.1632655858993530e-01</leafValues></_>
        <_>
          <internalNodes>
            0 -1 79 1.1699524708092213e-02</internalNodes>
          <leafValues>
            -4.4426533579826355e-01 3.2089132070541382e-01</leafValues></_>
        <_>
          <internalNodes>
            0 -1 62 3.3291420550085604e-05</internalNodes>
          <leafValues>
            -3.9105033874511719e-01 2.5066053867340088e-01</leafValues></_>
        <_>
          <internalNodes>
            0 -1 95 6.3147908076643944e-03</internalNodes>
          <leafValues>
            -3.3127674460411072e-01 3.1965929269790649e-01</leafValues></_>
        <_>
          <internalNodes>
            0 -1 90 4.9418890848755836e-03</internalNodes>
          <leafValues>
            1.0167570412158966e-01 -1.</leafValues></_>
        <_>
          <internalNodes>
            0 -1 11 4.4489875435829163e-03</internalNodes>
          <leafValues>
            1.6147300601005554e-01 -5.8357006311416626e-01</leafValues></_>
        <_>
          <internalNodes>
            0 -1 65 4.6917200088500977e-02</internalNodes>
          <leafValues>
            1.2010364234447479e-01 -8.3569961786270142e-01</leafValues></_>
        <_>
          <internalNodes>
            0 -1 148 -2.6004372630268335e-03</internalNodes>
          <leafValues>
            -8.7935757637023926e-01 9.9710822105407715e-02</leafValues></_>
        <_>
          <internalNodes>
            0 -1 120 2.4342169053852558e-03</internalNodes>
          <leafValues>
            8.8846392929553986e-02 -8.5203742980957031e-01</leafValues></_></weakClassifiers></_>
    <!-- stage 16 -->
    <_>
      <maxWeakCount>10</maxWeakCount>
      <stageThreshold>-1.7261478900909424e+00</stageThreshold>
      <weakClassifiers>
        <_>
          <internalNodes>
            0 -1 144 -1.0013183578848839e-02</internalNodes>
          <leafValues>
            2.3076923191547394e-01 -8.0987203121185303e-01</leafValues></_>
        <_>
          <internalNodes>
            0 -1 75 2.8437674045562744e-03</internalNodes>
          <leafValues>
            -5.4487317800521851e-01 1.0264971852302551e-01</leafValues></_>
        <_>
          <internalNodes>
            0 -1 40 2.1933499723672867e-02</internalNodes>
          <leafValues>
            1.2045981734991074e-01 -6.8750470876693726e-01</leafValues></_>
        <_>
          <internalNodes>
            0 -1 137 1.0871309787034988e-02</internalNodes>
          <leafValues>
            1.8290086090564728e-01 -6.7070907354354858e-01</leafValues></_>
        <_>
          <internalNodes>
            0 -1 134 3.9447150193154812e-03</internalNodes>
          <leafValues>
            -2.3934113979339600e-01 5.1635104417800903e-01</leafValues></_>
        <_>
          <internalNodes>
            0 -1 152 -7.6241022907197475e-04</internalNodes>
          <leafValues>
            -7.5345140695571899e-01 1.6249600052833557e-01</leafValues></_>
        <_>
          <internalNodes>
            0 -1 119 2.0059878006577492e-03</internalNodes>
          <leafValues>
            -2.8230994939804077e-01 3.8736304640769958e-01</leafValues></_>
        <_>
          <internalNodes>
            0 -1 41 -1.1398863047361374e-01</internalNodes>
          <leafValues>
            6.7664796113967896e-01 -1.6865344345569611e-01</leafValues></_>
        <_>
          <internalNodes>
            0 -1 85 -7.3209643596783280e-04</internalNodes>
          <leafValues>
            3.6248937249183655e-01 -2.9441171884536743e-01</leafValues></_>
        <_>
          <internalNodes>
            0 -1 153 2.5144228711724281e-03</internalNodes>
          <leafValues>
            1.4745686948299408e-01 -8.0084359645843506e-01</leafValues></_></weakClassifiers></_>
    <!-- stage 17 -->
    <_>
      <maxWeakCount>9</maxWeakCount>
      <stageThreshold>-1.7702511548995972e+00</stageThreshold>
      <weakClassifiers>
        <_>
          <internalNodes>
            0 -1 111 4.0419314056634903e-02</internalNodes>
          <leafValues>
            -8.1135529279708862e-01 2.1428571641445160e-01</leafValues></_>
        <_>
          <internalNodes>
            0 -1 76 -6.1664050444960594e-03</internalNodes>
          <leafValues>
            1.2888123095035553e-01 -5.4562675952911377e-01</leafValues></_>
        <_>
          <internalNodes>
            0 -1 102 3.2790813129395247e-03</internalNodes>
          <leafValues>
            -2.5867944955825806e-01 4.8924934864044189e-01</leafValues></_>
        <_>
          <internalNodes>
            0 -1 78 2.8492063283920288e-03</internalNodes>
          <leafValues>
            -2.4811476469039917e-01 4.3405002355575562e-01</leafValues></_>
        <_>
          <internalNodes>
            0 -1 19 1.7068751156330109e-02</internalNodes>
          <leafValues>
            1.2973573803901672e-01 -8.8081240653991699e-01</leafValues></_>
        <_>
          <internalNodes>
            0 -1 33 -1.2615384534001350e-02</internalNodes>
          <leafValues>
            4.7685983777046204e-01 -2.3095205426216125e-01</leafValues></_>
        <_>
          <internalNodes>
            0 -1 109 9.4444148999173194e-05</internalNodes>
          <leafValues>
            -3.2773014903068542e-01 3.3949792385101318e-01</leafValues></_>
        <_>
          <internalNodes>
            0 -1 67 1.4137999096419662e-04</internalNodes>
          <leafValues>
            -3.1580972671508789e-01 3.5435745120048523e-01</leafValues></_>
        <_>
          <internalNodes>
            0 -1 86 -1.3783141970634460e-02</internalNodes>
          <leafValues>
            -8.9733594655990601e-01 1.5611650049686432e-01</leafValues></_></weakClassifiers></_>
    <!-- stage 18 -->
    <_>
      <maxWeakCount>10</maxWeakCount>
      <stageThreshold>-1.5487847328186035e+00</stageThreshold>
      <weakClassifiers>
        <_>
          <internalNodes>
            0 -1 72 -1.9196063280105591e-01</internalNodes>
          <leafValues>
            1. -8.0018001794815063e-01</leafValues></_>
        <_>
          <internalNodes>
            0 -1 28 -2.0408596843481064e-02</internalNodes>
          <leafValues>
            2.0953732728958130e-01 -4.3297567963600159e-01</leafValues></_>
        <_>
          <internalNodes>
            0 -1 20 -3.4935776144266129e-02</internalNodes>
          <leafValues>
            -9.8934876918792725e-01 7.7399857342243195e-02</leafValues></_>
        <_>
          <internalNodes>
            0 -1 88 -1.1099032126367092e-03</internalNodes>
          <leafValues>
            3.4134626388549805e-01 -3.0452358722686768e-01</leafValues></_>
        <_>
          <internalNodes>
            0 -1 53 2.4396048393100500e-03</internalNodes>
          <leafValues>
            -2.7399027347564697e-01 3.6040714383125305e-01</leafValues></_>
        <_>
          <internalNodes>
            0 -1 129 1.0497620329260826e-02</internalNodes>
          <leafValues>
            -3.7369436025619507e-01 2.5405594706535339e-01</leafValues></_>
        <_>
          <internalNodes>
            0 -1 94 -6.0502965934574604e-03</internalNodes>
          <leafValues>
            3.5509631037712097e-01 -3.0670249462127686e-01</leafValues></_>
        <_>
          <internalNodes>
            0 -1 38 -6.1594564467668533e-03</internalNodes>
          <leafValues>
            -8.0103850364685059e-01 1.5004891157150269e-01</leafValues></_>
        <_>
          <internalNodes>
            0 -1 49 4.0773540735244751e-02</internalNodes>
          <leafValues>
            -2.4848446249961853e-01 5.3055655956268311e-01</leafValues></_>
        <_>
          <internalNodes>
            0 -1 132 6.6463073017075658e-04</internalNodes>
          <leafValues>
            -2.9783043265342712e-01 3.7038278579711914e-01</leafValues></_></weakClassifiers></_>
    <!-- stage 19 -->
    <_>
      <maxWeakCount>11</maxWeakCount>
      <stageThreshold>-1.6333029270172119e+00</stageThreshold>
      <weakClassifiers>
        <_>
          <internalNodes>
            0 -1 81 5.7919047772884369e-02</internalNodes>
          <leafValues>
            -8.0162310600280762e-01 8.1818181276321411e-01</leafValues></_>
        <_>
          <internalNodes>
            0 -1 116 -1.2056530686095357e-03</internalNodes>
          <leafValues>
            6.6527985036373138e-02 -5.1525723934173584e-01</leafValues></_>
        <_>
          <internalNodes>
            0 -1 62 3.6969009670428932e-05</internalNodes>
          <leafValues>
            -3.6041161417961121e-01 2.2115270793437958e-01</leafValues></_>
        <_>
          <internalNodes>
            0 -1 130 -8.6876563727855682e-04</internalNodes>
          <leafValues>
            2.8452709317207336e-01 -3.3532890677452087e-01</leafValues></_>
        <_>
          <internalNodes>
            0 -1 22 -8.4679562132805586e-04</internalNodes>
          <leafValues>
            -5.7496464252471924e-01 1.7815077304840088e-01</leafValues></_>
        <_>
          <internalNodes>
            0 -1 26 -2.6891224551945925e-03</internalNodes>
          <leafValues>
            -9.8355633020401001e-01 1.3313667476177216e-01</leafValues></_>
        <_>
          <internalNodes>
            0 -1 149 2.7798414230346680e-03</internalNodes>
          <leafValues>
            -3.0437770485877991e-01 3.2194581627845764e-01</leafValues></_>
        <_>
          <internalNodes>
            0 -1 138 -4.0483525954186916e-03</internalNodes>
          <leafValues>
            4.4236683845520020e-01 -2.5482729077339172e-01</leafValues></_>
        <_>
          <internalNodes>
            0 -1 117 3.6831442266702652e-03</internalNodes>
          <leafValues>
            1.4234955608844757e-01 -7.6390784978866577e-01</leafValues></_>
        <_>
          <internalNodes>
            0 -1 5 -8.8674977421760559e-02</internalNodes>
          <leafValues>
            4.8459610342979431e-01 -2.2155557572841644e-01</leafValues></_>
        <_>
          <internalNodes>
            0 -1 99 7.6869919896125793e-02</internalNodes>
          <leafValues>
            1.2487717717885971e-01 -8.0742686986923218e-01</leafValues></_></weakClassifiers></_></stages>
  <features>
    <_>
      <rects>
        <_>
          0 0 1 3 -1.</_>
        <_>
          0 1 1 1 3.</_></rects>
      <tilted>0</tilted></_>
    <_>
      <rects>
        <_>
          0 0 1 4 -1.</_>
        <_>
          0 2 1 2 2.</_></rects>
      <tilted>0</tilted></_>
    <_>
      <rects>
        <_>
          0 0 6 4 -1.</_>
        <_>
          0 0 3 2 2.</_>
        <_>
          3 2 3 2 2.</_></rects>
      <tilted>0</tilted></_>
    <_>
      <rects>
        <_>
          0 1 1 3 -1.</_>
        <_>
          0 2 1 1 3.</_></rects>
      <tilted>0</tilted></_>
    <_>
      <rects>
        <_>
          0 1 6 19 -1.</_>
        <_>
          3 1 3 19 2.</_></rects>
      <tilted>0</tilted></_>
    <_>
      <rects>
        <_>
          0 1 9 20 -1.</_>
        <_>
          3 1 3 20 3.</_></rects>
      <tilted>0</tilted></_>
    <_>
      <rects>
        <_>
          0 1 24 1 -1.</_>
        <_>
          8 1 8 1 3.</_></rects>
      <tilted>0</tilted></_>
    <_>
      <rects>
        <_>
          0 1 24 4 -1.</_>
        <_>
          8 1 8 4 3.</_></rects>
      <tilted>0</tilted></_>
    <_>
      <rects>
        <_>
          0 2 1 3 -1.</_>
        <_>
          0 3 1 1 3.</_></rects>
      <tilted>0</tilted></_>
    <_>
      <rects>
        <_>
          0 2 4 18 -1.</_>
        <_>
          2 2 2 18 2.</_></rects>
      <tilted>0</tilted></_>
    <_>
      <rects>
        <_>
          0 2 8 3 -1.</_>
        <_>
          4 2 4 3 2.</_></rects>
      <tilted>0</tilted></_>
    <_>
      <rects>
        <_>
          0 3 1 12 -1.</_>
        <_>
          0 9 1 6 2.</_></rects>
      <tilted>0</tilted></_>
    <_>
      <rects>
        <_>
          0 3 8 14 -1.</_>
        <_>
          4 3 4 14 2.</_></rects>
      <tilted>0</tilted></_>
    <_>
      <rects>
        <_>
          0 3 24 1 -1.</_>
        <_>
          8 3 8 1 3.</_></rects>
      <tilted>0</tilted></_>
    <_>
      <rects>
        <_>
          0 6 19 9 -1.</_>
        <_>
          0 9 19 3 3.</_></rects>
      <tilted>0</tilted></_>
    <_>
      <rects>
        <_>
          0 7 6 5 -1.</_>
        <_>
          3 7 3 5 2.</_></rects>
      <tilted>0</tilted></_>
    <_>
      <rects>
        <_>
          0 7 24 8 -1.</_>
        <_>
          0 7 12 4 2.</_>
        <_>
          12 11 12 4 2.</_></rects>
      <tilted>0</tilted></_>
    <_>
      <rects>
        <_>
          0 11 3 2 -1.</_>
        <_>
          0 12 3 1 2.</_></rects>
      <tilted>0</tilted></_>
    <_>
      <rects>
        <_>
          0 14 5 2 -1.</_>
        <_>
          0 15 5 1 2.</_></rects>
      <tilted>0</tilted></_>
    <_>
      <rects>
        <_>
          0 15 8 6 -1.</_>
        <_>
          0 17 8 2 3.</_></rects>
      <tilted>0</tilted></_>
    <_>
      <rects>
        <_>
          0 15 11 6 -1.</_>
        <_>
          0 17 11 2 3.</_></rects>
      <tilted>0</tilted></_>
    <_>
      <rects>
        <_>
          1 0 2 2 -1.</_>
        <_>
          1 0 1 1 2.</_>
        <_>
          2 1 1 1 2.</_></rects>
      <tilted>0</tilted></_>
    <_>
      <rects>
        <_>
          1 0 4 1 -1.</_>
        <_>
          3 0 2 1 2.</_></rects>
      <tilted>0</tilted></_>
    <_>
      <rects>
        <_>
          1 1 17 6 -1.</_>
        <_>
          1 3 17 2 3.</_></rects>
      <tilted>0</tilted></_>
    <_>
      <rects>
        <_>
          1 4 10 1 -1.</_>
        <_>
          6 4 5 1 2.</_></rects>
      <tilted>0</tilted></_>
    <_>
      <rects>
        <_>
          1 7 9 2 -1.</_>
        <_>
          4 7 3 2 3.</_></rects>
      <tilted>0</tilted></_>
    <_>
      <rects>
        <_>
          1 11 3 3 -1.</_>
        <_>
          1 12 3 1 3.</_></rects>
      <tilted>0</tilted></_>
    <_>
      <rects>
        <_>
          1 11 14 3 -1.</_>
        <_>
          1 12 14 1 3.</_></rects>
      <tilted>0</tilted></_>
    <_>
      <rects>
        <_>
          1 13 6 6 -1.</_>
        <_>
          4 13 3 6 2.</_></rects>
      <tilted>0</tilted></_>
    <_>
      <rects>
        <_>
          1 17 10 4 -1.</_>
        <_>
          1 17 5 2 2.</_>
        <_>
          6 19 5 2 2.</_></rects>
      <tilted>0</tilted></_>
    <_>
      <rects>
        <_>
          1 19 16 4 -1.</_>
        <_>
          1 19 8 2 2.</_>
        <_>
          9 21 8 2 2.</_></rects>
      <tilted>0</tilted></_>
    <_>
      <rects>
        <_>
          1 22 21 2 -1.</_>
        <_>
          8 22 7 2 3.</_></rects>
      <tilted>0</tilted></_>
    <_>
      <rects>
        <_>
          2 0 2 2 -1.</_>
        <_>
          2 1 2 1 2.</_></rects>
      <tilted>0</tilted></_>
    <_>
      <rects>
        <_>
          2 0 10 2 -1.</_>
        <_>
          7 0 5 2 2.</_></rects>
      <tilted>0</tilted></_>
    <_>
      <rects>
        <_>
          2 1 11 18 -1.</_>
        <_>
          2 7 11 6 3.</_></rects>
      <tilted>0</tilted></_>
    <_>
      <rects>
        <_>
          2 3 9 16 -1.</_>
        <_>
          2 11 9 8 2.</_></rects>
      <tilted>0</tilted></_>
    <_>
      <rects>
        <_>
          2 4 3 9 -1.</_>
        <_>
          3 4 1 9 3.</_></rects>
      <tilted>0</tilted></_>
    <_>
      <rects>
        <_>
          2 8 4 10 -1.</_>
        <_>
          4 8 2 10 2.</_></rects>
      <tilted>0</tilted></_>
    <_>
      <rects>
        <_>
          2 12 3 6 -1.</_>
        <_>
          2 14 3 2 3.</_></rects>
      <tilted>0</tilted></_>
    <_>
      <rects>
        <_>
          2 13 9 4 -1.</_>
        <_>
          2 15 9 2 2.</_></rects>
      <tilted>0</tilted></_>
    <_>
      <rects>
        <_>
          2 13 22 6 -1.</_>
        <_>
          2 13 11 3 2.</_>
        <_>
          13 16 11 3 2.</_></rects>
      <tilted>0</tilted></_>
    <_>
      <rects>
        <_>
          3 0 15 6 -1.</_>
        <_>
          3 2 15 2 3.</_></rects>
      <tilted>0</tilted></_>
    <_>
      <rects>
        <_>
          3 4 18 6 -1.</_>
        <_>
          3 6 18 2 3.</_></rects>
      <tilted>0</tilted></_>
    <_>
      <rects>
        <_>
          3 9 14 2 -1.</_>
        <_>
          10 9 7 2 2.</_></rects>
      <tilted>0</tilted></_>
    <_>
      <rects>
        <_>
          3 9 16 8 -1.</_>
        <_>
          3 9 8 4 2.</_>
        <_>
          11 13 8 4 2.</_></rects>
      <tilted>0</tilted></_>
    <_>
      <rects>
        <_>
          3 19 6 4 -1.</_>
        <_>
          3 19 3 2 2.</_>
        <_>
          6 21 3 2 2.</_></rects>
      <tilted>0</tilted></_>
    <_>
      <rects>
        <_>
          4 0 2 4 -1.</_>
        <_>
          4 2 2 2 2.</_></rects>
      <tilted>0</tilted></_>
    <_>
      <rects>
        <_>
          4 0 6 2 -1.</_>
        <_>
          4 1 6 1 2.</_></rects>
      <tilted>0</tilted></_>
    <_>
      <rects>
        <_>
          4 0 15 4 -1.</_>
        <_>
          4 2 15 2 2.</_></rects>
      <tilted>0</tilted></_>
    <_>
      <rects>
        <_>
          4 6 13 9 -1.</_>
        <_>
          4 9 13 3 3.</_></rects>
      <tilted>0</tilted></_>
    <_>
      <rects>
        <_>
          4 6 16 9 -1.</_>
        <_>
          4 9 16 3 3.</_></rects>
      <tilted>0</tilted></_>
    <_>
      <rects>
        <_>
          4 9 16 8 -1.</_>
        <_>
          4 9 8 4 2.</_>
        <_>
          12 13 8 4 2.</_></rects>
      <tilted>0</tilted></_>
    <_>
      <rects>
        <_>
          4 11 16 8 -1.</_>
        <_>
          4 11 8 4 2.</_>
        <_>
          12 15 8 4 2.</_></rects>
      <tilted>0</tilted></_>
    <_>
      <rects>
        <_>
          4 16 10 3 -1.</_>
        <_>
          4 17 10 1 3.</_></rects>
      <tilted>0</tilted></_>
    <_>
      <rects>
        <_>
          5 0 15 6 -1.</_>
        <_>
          5 2 15 2 3.</_></rects>
      <tilted>0</tilted></_>
    <_>
      <rects>
        <_>
          5 2 10 6 -1.</_>
        <_>
          5 4 10 2 3.</_></rects>
      <tilted>0</tilted></_>
    <_>
      <rects>
        <_>
          5 8 4 6 -1.</_>
        <_>
          5 8 2 3 2.</_>
        <_>
          7 11 2 3 2.</_></rects>
      <tilted>0</tilted></_>
    <_>
      <rects>
        <_>
          5 8 15 9 -1.</_>
        <_>
          5 11 15 3 3.</_></rects>
      <tilted>0</tilted></_>
    <_>
      <rects>
        <_>
          5 10 3 2 -1.</_>
        <_>
          6 10 1 2 3.</_></rects>
      <tilted>0</tilted></_>
    <_>
      <rects>
        <_>
          5 10 14 4 -1.</_>
        <_>
          5 10 7 2 2.</_>
        <_>
          12 12 7 2 2.</_></rects>
      <tilted>0</tilted></_>
    <_>
      <rects>
        <_>
          5 17 4 2 -1.</_>
        <_>
          5 17 2 1 2.</_>
        <_>
          7 18 2 1 2.</_></rects>
      <tilted>0</tilted></_>
    <_>
      <rects>
        <_>
          6 0 12 12 -1.</_>
        <_>
          6 4 12 4 3.</_></rects>
      <tilted>0</tilted></_>
    <_>
      <rects>
        <_>
          6 2 4 1 -1.</_>
        <_>
          8 2 2 1 2.</_></rects>
      <tilted>0</tilted></_>
    <_>
      <rects>
        <_>
          6 2 12 9 -1.</_>
        <_>
          6 5 12 3 3.</_></rects>
      <tilted>0</tilted></_>
    <_>
      <rects>
        <_>
          6 2 13 6 -1.</_>
        <_>
          6 5 13 3 2.</_></rects>
      <tilted>0</tilted></_>
    <_>
      <rects>
        <_>
          6 5 6 17 -1.</_>
        <_>
          9 5 3 17 2.</_></rects>
      <tilted>0</tilted></_>
    <_>
      <rects>
        <_>
          6 6 12 4 -1.</_>
        <_>
          10 6 4 4 3.</_></rects>
      <tilted>0</tilted></_>
    <_>
      <rects>
        <_>
          6 14 2 1 -1.</_>
        <_>
          7 14 1 1 2.</_></rects>
      <tilted>0</tilted></_>
    <_>
      <rects>
        <_>
          6 18 4 4 -1.</_>
        <_>
          6 18 2 2 2.</_>
        <_>
          8 20 2 2 2.</_></rects>
      <tilted>0</tilted></_>
    <_>
      <rects>
        <_>
          6 18 2 6 -1.</_>
        <_>
          6 21 2 3 2.</_></rects>
      <tilted>0</tilted></_>
    <_>
      <rects>
        <_>
          7 1 12 12 -1.</_>
        <_>
          11 1 4 12 3.</_></rects>
      <tilted>0</tilted></_>
    <_>
      <rects>
        <_>
          7 1 10 9 -1.</_>
        <_>
          7 4 10 3 3.</_></rects>
      <tilted>0</tilted></_>
    <_>
      <rects>
        <_>
          7 1 14 6 -1.</_>
        <_>
          7 3 14 2 3.</_></rects>
      <tilted>0</tilted></_>
    <_>
      <rects>
        <_>
          7 2 13 9 -1.</_>
        <_>
          7 5 13 3 3.</_></rects>
      <tilted>0</tilted></_>
    <_>
      <rects>
        <_>
          7 7 2 1 -1.</_>
        <_>
          8 7 1 1 2.</_></rects>
      <tilted>0</tilted></_>
    <_>
      <rects>
        <_>
          7 7 4 3 -1.</_>
        <_>
          9 7 2 3 2.</_></rects>
      <tilted>0</tilted></_>
    <_>
      <rects>
        <_>
          7 10 8 6 -1.</_>
        <_>
          7 10 4 3 2.</_>
        <_>
          11 13 4 3 2.</_></rects>
      <tilted>0</tilted></_>
    <_>
      <rects>
        <_>
          7 11 14 3 -1.</_>
        <_>
          7 12 14 1 3.</_></rects>
      <tilted>0</tilted></_>
    <_>
      <rects>
        <_>
          7 14 13 3 -1.</_>
        <_>
          7 15 13 1 3.</_></rects>
      <tilted>0</tilted></_>
    <_>
      <rects>
        <_>
          7 22 13 2 -1.</_>
        <_>
          7 23 13 1 2.</_></rects>
      <tilted>0</tilted></_>
    <_>
      <rects>
        <_>
          8 0 11 3 -1.</_>
        <_>
          8 1 11 1 3.</_></rects>
      <tilted>0</tilted></_>
    <_>
      <rects>
        <_>
          8 1 14 2 -1.</_>
        <_>
          15 1 7 2 2.</_></rects>
      <tilted>0</tilted></_>
    <_>
      <rects>
        <_>
          8 1 11 12 -1.</_>
        <_>
          8 5 11 4 3.</_></rects>
      <tilted>0</tilted></_>
    <_>
      <rects>
        <_>
          8 3 16 14 -1.</_>
        <_>
          8 10 16 7 2.</_></rects>
      <tilted>0</tilted></_>
    <_>
      <rects>
        <_>
          8 6 12 12 -1.</_>
        <_>
          8 6 6 6 2.</_>
        <_>
          14 12 6 6 2.</_></rects>
      <tilted>0</tilted></_>
    <_>
      <rects>
        <_>
          8 9 3 5 -1.</_>
        <_>
          9 9 1 5 3.</_></rects>
      <tilted>0</tilted></_>
    <_>
      <rects>
        <_>
          8 12 4 9 -1.</_>
        <_>
          10 12 2 9 2.</_></rects>
      <tilted>0</tilted></_>
    <_>
      <rects>
        <_>
          8 14 1 2 -1.</_>
        <_>
          8 15 1 1 2.</_></rects>
      <tilted>0</tilted></_>
    <_>
      <rects>
        <_>
          8 15 4 2 -1.</_>
        <_>
          8 16 4 1 2.</_></rects>
      <tilted>0</tilted></_>
    <_>
      <rects>
        <_>
          8 16 1 6 -1.</_>
        <_>
          8 18 1 2 3.</_></rects>
      <tilted>0</tilted></_>
    <_>
      <rects>
        <_>
          9 1 6 2 -1.</_>
        <_>
          11 1 2 2 3.</_></rects>
      <tilted>0</tilted></_>
    <_>
      <rects>
        <_>
          9 2 6 2 -1.</_>
        <_>
          11 2 2 2 3.</_></rects>
      <tilted>0</tilted></_>
    <_>
      <rects>
        <_>
          9 2 5 4 -1.</_>
        <_>
          9 4 5 2 2.</_></rects>
      <tilted>0</tilted></_>
    <_>
      <rects>
        <_>
          9 3 15 2 -1.</_>
        <_>
          14 3 5 2 3.</_></rects>
      <tilted>0</tilted></_>
    <_>
      <rects>
        <_>
          9 6 12 4 -1.</_>
        <_>
          9 8 12 2 2.</_></rects>
      <tilted>0</tilted></_>
    <_>
      <rects>
        <_>
          9 8 6 10 -1.</_>
        <_>
          11 8 2 10 3.</_></rects>
      <tilted>0</tilted></_>
    <_>
      <rects>
        <_>
          10 0 8 6 -1.</_>
        <_>
          10 2 8 2 3.</_></rects>
      <tilted>0</tilted></_>
    <_>
      <rects>
        <_>
          10 1 8 9 -1.</_>
        <_>
          10 4 8 3 3.</_></rects>
      <tilted>0</tilted></_>
    <_>
      <rects>
        <_>
          10 2 3 6 -1.</_>
        <_>
          10 4 3 2 3.</_></rects>
      <tilted>0</tilted></_>
    <_>
      <rects>
        <_>
          10 6 14 12 -1.</_>
        <_>
          10 12 14 6 2.</_></rects>
      <tilted>0</tilted></_>
    <_>
      <rects>
        <_>
          10 7 2 4 -1.</_>
        <_>
          11 7 1 4 2.</_></rects>
      <tilted>0</tilted></_>
    <_>
      <rects>
        <_>
          10 16 3 3 -1.</_>
        <_>
          10 17 3 1 3.</_></rects>
      <tilted>0</tilted></_>
    <_>
      <rects>
        <_>
          10 16 5 3 -1.</_>
        <_>
          10 17 5 1 3.</_></rects>
      <tilted>0</tilted></_>
    <_>
      <rects>
        <_>
          10 19 2 2 -1.</_>
        <_>
          10 19 1 1 2.</_>
        <_>
          11 20 1 1 2.</_></rects>
      <tilted>0</tilted></_>
    <_>
      <rects>
        <_>
          10 20 2 2 -1.</_>
        <_>
          10 20 1 1 2.</_>
        <_>
          11 21 1 1 2.</_></rects>
      <tilted>0</tilted></_>
    <_>
      <rects>
        <_>
          11 0 6 6 -1.</_>
        <_>
          13 0 2 6 3.</_></rects>
      <tilted>0</tilted></_>
    <_>
      <rects>
        <_>
          11 1 2 3 -1.</_>
        <_>
          12 1 1 3 2.</_></rects>
      <tilted>0</tilted></_>
    <_>
      <rects>
        <_>
          11 1 3 3 -1.</_>
        <_>
          12 1 1 3 3.</_></rects>
      <tilted>0</tilted></_>
    <_>
      <rects>
        <_>
          11 4 6 12 -1.</_>
        <_>
          11 4 3 6 2.</_>
        <_>
          14 10 3 6 2.</_></rects>
      <tilted>0</tilted></_>
    <_>
      <rects>
        <_>
          11 8 2 2 -1.</_>
        <_>
          11 8 1 1 2.</_>
        <_>
          12 9 1 1 2.</_></rects>
      <tilted>0</tilted></_>
    <_>
      <rects>
        <_>
          11 9 6 5 -1.</_>
        <_>
          13 9 2 5 3.</_></rects>
      <tilted>0</tilted></_>
    <_>
      <rects>
        <_>
          11 17 10 6 -1.</_>
        <_>
          11 17 5 3 2.</_>
        <_>
          16 20 5 3 2.</_></rects>
      <tilted>0</tilted></_>
    <_>
      <rects>
        <_>
          11 20 8 4 -1.</_>
        <_>
          11 20 4 2 2.</_>
        <_>
          15 22 4 2 2.</_></rects>
      <tilted>0</tilted></_>
    <_>
      <rects>
        <_>
          11 21 4 3 -1.</_>
        <_>
          11 22 4 1 3.</_></rects>
      <tilted>0</tilted></_>
    <_>
      <rects>
        <_>
          12 2 7 6 -1.</_>
        <_>
          12 5 7 3 2.</_></rects>
      <tilted>0</tilted></_>
    <_>
      <rects>
        <_>
          12 5 2 1 -1.</_>
        <_>
          13 5 1 1 2.</_></rects>
      <tilted>0</tilted></_>
    <_>
      <rects>
        <_>
          12 8 3 7 -1.</_>
        <_>
          13 8 1 7 3.</_></rects>
      <tilted>0</tilted></_>
    <_>
      <rects>
        <_>
          13 1 3 8 -1.</_>
        <_>
          14 1 1 8 3.</_></rects>
      <tilted>0</tilted></_>
    <_>
      <rects>
        <_>
          13 15 6 3 -1.</_>
        <_>
          13 16 6 1 3.</_></rects>
      <tilted>0</tilted></_>
    <_>
      <rects>
        <_>
          14 0 2 6 -1.</_>
        <_>
          14 2 2 2 3.</_></rects>
      <tilted>0</tilted></_>
    <_>
      <rects>
        <_>
          14 1 2 9 -1.</_>
        <_>
          15 1 1 9 2.</_></rects>
      <tilted>0</tilted></_>
    <_>
      <rects>
        <_>
          14 1 8 6 -1.</_>
        <_>
          14 1 4 3 2.</_>
        <_>
          18 4 4 3 2.</_></rects>
      <tilted>0</tilted></_>
    <_>
      <rects>
        <_>
          14 1 10 4 -1.</_>
        <_>
          19 1 5 4 2.</_></rects>
      <tilted>0</tilted></_>
    <_>
      <rects>
        <_>
          14 1 10 5 -1.</_>
        <_>
          19 1 5 5 2.</_></rects>
      <tilted>0</tilted></_>
    <_>
      <rects>
        <_>
          14 3 10 3 -1.</_>
        <_>
          19 3 5 3 2.</_></rects>
      <tilted>0</tilted></_>
    <_>
      <rects>
        <_>
          14 6 3 3 -1.</_>
        <_>
          14 7 3 1 3.</_></rects>
      <tilted>0</tilted></_>
    <_>
      <rects>
        <_>
          14 12 2 8 -1.</_>
        <_>
          14 16 2 4 2.</_></rects>
      <tilted>0</tilted></_>
    <_>
      <rects>
        <_>
          14 14 9 4 -1.</_>
        <_>
          17 14 3 4 3.</_></rects>
      <tilted>0</tilted></_>
    <_>
      <rects>
        <_>
          14 15 2 2 -1.</_>
        <_>
          14 16 2 1 2.</_></rects>
      <tilted>0</tilted></_>
    <_>
      <rects>
        <_>
          15 1 3 14 -1.</_>
        <_>
          15 8 3 7 2.</_></rects>
      <tilted>0</tilted></_>
    <_>
      <rects>
        <_>
          15 1 6 3 -1.</_>
        <_>
          15 2 6 1 3.</_></rects>
      <tilted>0</tilted></_>
    <_>
      <rects>
        <_>
          15 7 2 1 -1.</_>
        <_>
          16 7 1 1 2.</_></rects>
      <tilted>0</tilted></_>
    <_>
      <rects>
        <_>
          15 12 2 3 -1.</_>
        <_>
          15 13 2 1 3.</_></rects>
      <tilted>0</tilted></_>
    <_>
      <rects>
        <_>
          15 12 9 9 -1.</_>
        <_>
          18 12 3 9 3.</_></rects>
      <tilted>0</tilted></_>
    <_>
      <rects>
        <_>
          16 0 6 2 -1.</_>
        <_>
          16 0 3 1 2.</_>
        <_>
          19 1 3 1 2.</_></rects>
      <tilted>0</tilted></_>
    <_>
      <rects>
        <_>
          16 0 8 21 -1.</_>
        <_>
          20 0 4 21 2.</_></rects>
      <tilted>0</tilted></_>
    <_>
      <rects>
        <_>
          16 10 6 7 -1.</_>
        <_>
          19 10 3 7 2.</_></rects>
      <tilted>0</tilted></_>
    <_>
      <rects>
        <_>
          16 13 8 6 -1.</_>
        <_>
          16 15 8 2 3.</_></rects>
      <tilted>0</tilted></_>
    <_>
      <rects>
        <_>
          16 15 4 8 -1.</_>
        <_>
          16 15 2 4 2.</_>
        <_>
          18 19 2 4 2.</_></rects>
      <tilted>0</tilted></_>
    <_>
      <rects>
        <_>
          17 11 6 7 -1.</_>
        <_>
          20 11 3 7 2.</_></rects>
      <tilted>0</tilted></_>
    <_>
      <rects>
        <_>
          17 13 1 4 -1.</_>
        <_>
          17 15 1 2 2.</_></rects>
      <tilted>0</tilted></_>
    <_>
      <rects>
        <_>
          18 1 6 19 -1.</_>
        <_>
          21 1 3 19 2.</_></rects>
      <tilted>0</tilted></_>
    <_>
      <rects>
        <_>
          18 5 6 18 -1.</_>
        <_>
          21 5 3 18 2.</_></rects>
      <tilted>0</tilted></_>
    <_>
      <rects>
        <_>
          18 16 2 3 -1.</_>
        <_>
          18 17 2 1 3.</_></rects>
      <tilted>0</tilted></_>
    <_>
      <rects>
        <_>
          19 2 2 8 -1.</_>
        <_>
          19 2 1 4 2.</_>
        <_>
          20 6 1 4 2.</_></rects>
      <tilted>0</tilted></_>
    <_>
      <rects>
        <_>
          20 0 3 1 -1.</_>
        <_>
          21 0 1 1 3.</_></rects>
      <tilted>0</tilted></_>
    <_>
      <rects>
        <_>
          20 2 4 20 -1.</_>
        <_>
          22 2 2 20 2.</_></rects>
      <tilted>0</tilted></_>
    <_>
      <rects>
        <_>
          20 3 4 18 -1.</_>
        <_>
          22 3 2 18 2.</_></rects>
      <tilted>0</tilted></_>
    <_>
      <rects>
        <_>
          20 14 4 2 -1.</_>
        <_>
          20 15 4 1 2.</_></rects>
      <tilted>0</tilted></_>
    <_>
      <rects>
        <_>
          20 16 1 8 -1.</_>
        <_>
          20 20 1 4 2.</_></rects>
      <tilted>0</tilted></_>
    <_>
      <rects>
        <_>
          20 20 2 4 -1.</_>
        <_>
          20 22 2 2 2.</_></rects>
      <tilted>0</tilted></_>
    <_>
      <rects>
        <_>
          21 0 3 1 -1.</_>
        <_>
          22 0 1 1 3.</_></rects>
      <tilted>0</tilted></_>
    <_>
      <rects>
        <_>
          22 1 1 2 -1.</_>
        <_>
          22 2 1 1 2.</_></rects>
      <tilted>0</tilted></_>
    <_>
      <rects>
        <_>
          23 0 1 6 -1.</_>
        <_>
          23 2 1 2 3.</_></rects>
      <tilted>0</tilted></_>
    <_>
      <rects>
        <_>
          23 9 1 3 -1.</_>
        <_>
          23 10 1 1 3.</_></rects>
      <tilted>0</tilted></_>
    <_>
      <rects>
        <_>
          23 13 1 2 -1.</_>
        <_>
          23 14 1 1 2.</_></rects>
      <tilted>0</tilted></_></features></cascade>
</opencv_storage>
