<?xml version="1.0"?>
<opencv_storage>
<cascade>
  <stageType>BOOST</stageType>
  <featureType>HAAR</featureType>
  <height>24</height>
  <width>24</width>
  <stageParams>
    <boostType>GAB</boostType>
    <minHitRate>9.9500000476837158e-01</minHitRate>
    <maxFalseAlarm>5.0000000000000000e-01</maxFalseAlarm>
    <weightTrimRate>9.4999998807907104e-01</weightTrimRate>
    <maxDepth>1</maxDepth>
    <maxWeakCount>100</maxWeakCount></stageParams>
  <featureParams>
    <maxCatCount>0</maxCatCount>
    <featSize>1</featSize>
    <mode>BASIC</mode></featureParams>
  <stageNum>13</stageNum>
  <stages>
    <!-- stage 0 -->
    <_>
      <maxWeakCount>4</maxWeakCount>
      <stageThreshold>-2.1480915546417236e+00</stageThreshold>
      <weakClassifiers>
        <_>
          <internalNodes>
            0 -1 8 -1.8817149102687836e-01</internalNodes>
          <leafValues>
            1. -9.6850395202636719e-01</leafValues></_>
        <_>
          <internalNodes>
            0 -1 40 1.7641024291515350e-01</internalNodes>
          <leafValues>
            -9.3142205476760864e-01 5.3683924674987793e-01</leafValues></_>
        <_>
          <internalNodes>
            0 -1 14 -6.8300075829029083e-02</internalNodes>
          <leafValues>
            8.8638210296630859e-01 -7.6469212770462036e-01</leafValues></_>
        <_>
          <internalNodes>
            0 -1 28 1.0331837984267622e-04</internalNodes>
          <leafValues>
            -8.4588503837585449e-01 5.1652646064758301e-01</leafValues></_></weakClassifiers></_>
    <!-- stage 1 -->
    <_>
      <maxWeakCount>4</maxWeakCount>
      <stageThreshold>-2.2054586410522461e+00</stageThreshold>
      <weakClassifiers>
        <_>
          <internalNodes>
            0 -1 18 -9.0590372681617737e-02</internalNodes>
          <leafValues>
            7.1428573131561279e-01 -9.6847289800643921e-01</leafValues></_>
        <_>
          <internalNodes>
            0 -1 42 9.0981125831604004e-02</internalNodes>
          <leafValues>
            -8.9967542886734009e-01 3.0498859286308289e-01</leafValues></_>
        <_>
          <internalNodes>
            0 -1 16 -1.1273066699504852e-01</internalNodes>
          <leafValues>
            6.3352811336517334e-01 -7.8978604078292847e-01</leafValues></_>
        <_>
          <internalNodes>
            0 -1 36 -8.1709481775760651e-02</internalNodes>
          <leafValues>
            5.6631541252136230e-01 -7.5218832492828369e-01</leafValues></_></weakClassifiers></_>
    <!-- stage 2 -->
    <_>
      <maxWeakCount>4</maxWeakCount>
      <stageThreshold>-2.1953117847442627e+00</stageThreshold>
      <weakClassifiers>
        <_>
          <internalNodes>
            0 -1 43 -1.1581154540181160e-02</internalNodes>
          <leafValues>
            1. -9.6270853281021118e-01</leafValues></_>
        <_>
          <internalNodes>
            0 -1 29 -5.9620724059641361e-03</internalNodes>
          <leafValues>
            2.0279400050640106e-01 -8.9080297946929932e-01</leafValues></_>
        <_>
          <internalNodes>
            0 -1 45 -2.5705285370349884e-03</internalNodes>
          <leafValues>
            5.6383252143859863e-01 -7.5163757801055908e-01</leafValues></_>
        <_>
          <internalNodes>
            0 -1 37 1.8431231728754938e-04</internalNodes>
          <leafValues>
            -7.7401703596115112e-01 4.0983730554580688e-01</leafValues></_></weakClassifiers></_>
    <!-- stage 3 -->
    <_>
      <maxWeakCount>4</maxWeakCount>
      <stageThreshold>-2.3248999118804932e+00</stageThreshold>
      <weakClassifiers>
        <_>
          <internalNodes>
            0 -1 15 -6.4006829261779785e-01</internalNodes>
          <leafValues>
            1. -9.6270853281021118e-01</leafValues></_>
        <_>
          <internalNodes>
            0 -1 17 -8.2051120698451996e-03</internalNodes>
          <leafValues>
            -8.1615015864372253e-02 -9.1209071874618530e-01</leafValues></_>
        <_>
          <internalNodes>
            0 -1 39 -1.8039457499980927e-02</internalNodes>
          <leafValues>
            4.0864276885986328e-01 -7.3165655136108398e-01</leafValues></_>
        <_>
          <internalNodes>
            0 -1 41 1.0268505662679672e-01</internalNodes>
          <leafValues>
            -5.4891985654830933e-01 6.5677660703659058e-01</leafValues></_></weakClassifiers></_>
    <!-- stage 4 -->
    <_>
      <maxWeakCount>4</maxWeakCount>
      <stageThreshold>-2.1629056930541992e+00</stageThreshold>
      <weakClassifiers>
        <_>
          <internalNodes>
            0 -1 10 -1.0130539536476135e-01</internalNodes>
          <leafValues>
            6.6666668653488159e-01 -9.6653544902801514e-01</leafValues></_>
        <_>
          <internalNodes>
            0 -1 44 -3.8933701813220978e-02</internalNodes>
          <leafValues>
            4.1726768016815186e-01 -8.6148315668106079e-01</leafValues></_>
        <_>
          <internalNodes>
            0 -1 7 2.5927269831299782e-02</internalNodes>
          <leafValues>
            -8.2207101583480835e-01 4.7232052683830261e-01</leafValues></_>
        <_>
          <internalNodes>
            0 -1 25 4.2157612740993500e-02</internalNodes>
          <leafValues>
            -7.9156690835952759e-01 4.9413076043128967e-01</leafValues></_></weakClassifiers></_>
    <!-- stage 5 -->
    <_>
      <maxWeakCount>4</maxWeakCount>
      <stageThreshold>-1.6326227188110352e+00</stageThreshold>
      <weakClassifiers>
        <_>
          <internalNodes>
            0 -1 13 -1.1779341101646423e-01</internalNodes>
          <leafValues>
            1. -9.6270853281021118e-01</leafValues></_>
        <_>
          <internalNodes>
            0 -1 32 -4.9747847951948643e-03</internalNodes>
          <leafValues>
            2.1525005996227264e-01 -8.4343880414962769e-01</leafValues></_>
        <_>
          <internalNodes>
            0 -1 0 -2.0641009905375540e-04</internalNodes>
          <leafValues>
            -1. 3.0425135046243668e-02</leafValues></_>
        <_>
          <internalNodes>
            0 -1 48 -3.6388478474691510e-04</internalNodes>
          <leafValues>
            -9.1558933258056641e-01 2.1277096867561340e-01</leafValues></_></weakClassifiers></_>
    <!-- stage 6 -->
    <_>
      <maxWeakCount>5</maxWeakCount>
      <stageThreshold>-2.1777613162994385e+00</stageThreshold>
      <weakClassifiers>
        <_>
          <internalNodes>
            0 -1 38 5.5046208202838898e-02</internalNodes>
          <leafValues>
            -9.6453201770782471e-01 1.4285714924335480e-01</leafValues></_>
        <_>
          <internalNodes>
            0 -1 30 -3.0184783041477203e-02</internalNodes>
          <leafValues>
            8.7299652397632599e-02 -8.6139279603958130e-01</leafValues></_>
        <_>
          <internalNodes>
            0 -1 33 2.7621798217296600e-03</internalNodes>
          <leafValues>
            -7.3683059215545654e-01 2.2441048920154572e-01</leafValues></_>
        <_>
          <internalNodes>
            0 -1 4 4.3700136302504689e-05</internalNodes>
          <leafValues>
            2.7583807706832886e-01 -8.1147581338882446e-01</leafValues></_>
        <_>
          <internalNodes>
            0 -1 49 -7.3717243503779173e-04</internalNodes>
          <leafValues>
            -9.4614571332931519e-01 2.3522873222827911e-01</leafValues></_></weakClassifiers></_>
    <!-- stage 7 -->
    <_>
      <maxWeakCount>5</maxWeakCount>
      <stageThreshold>-1.8173545598983765e+00</stageThreshold>
      <weakClassifiers>
        <_>
          <internalNodes>
            0 -1 9 2.8606951236724854e-01</internalNodes>
          <leafValues>
            -9.6078431606292725e-01 1.</leafValues></_>
        <_>
          <internalNodes>
            0 -1 22 1.2698364257812500e-01</internalNodes>
          <leafValues>
            -8.2331514358520508e-01 5.1842933893203735e-01</leafValues></_>
        <_>
          <internalNodes>
            0 -1 34 -4.0725438157096505e-04</internalNodes>
          <leafValues>
            2.1098548173904419e-01 -7.4430352449417114e-01</leafValues></_>
        <_>
          <internalNodes>
            0 -1 49 1.5333443298004568e-04</internalNodes>
          <leafValues>
            4.0115845203399658e-01 -6.8574988842010498e-01</leafValues></_>
        <_>
          <internalNodes>
            0 -1 20 -3.4356743097305298e-02</internalNodes>
          <leafValues>
            5.2548497915267944e-01 -6.4539903402328491e-01</leafValues></_></weakClassifiers></_>
    <!-- stage 8 -->
    <_>
      <maxWeakCount>3</maxWeakCount>
      <stageThreshold>-1.7754175662994385e+00</stageThreshold>
      <weakClassifiers>
        <_>
          <internalNodes>
            0 -1 27 -1.1510336399078369e-01</internalNodes>
          <leafValues>
            1.4285714924335480e-01 -9.6453201770782471e-01</leafValues></_>
        <_>
          <internalNodes>
            0 -1 47 3.2541602849960327e-03</internalNodes>
          <leafValues>
            -8.6895620822906494e-01 -1.3870525360107422e-01</leafValues></_>
        <_>
          <internalNodes>
            0 -1 31 -1.4500240795314312e-03</internalNodes>
          <leafValues>
            3.0031615495681763e-01 -6.7218023538589478e-01</leafValues></_></weakClassifiers></_>
    <!-- stage 9 -->
    <_>
      <maxWeakCount>4</maxWeakCount>
      <stageThreshold>-2.0096457004547119e+00</stageThreshold>
      <weakClassifiers>
        <_>
          <internalNodes>
            0 -1 21 1.0053777694702148e-01</internalNodes>
          <leafValues>
            -9.6270853281021118e-01 1.</leafValues></_>
        <_>
          <internalNodes>
            0 -1 19 4.8370611667633057e-01</internalNodes>
          <leafValues>
            -8.3306884765625000e-01 3.2419440150260925e-01</leafValues></_>
        <_>
          <internalNodes>
            0 -1 5 -1.9723577797412872e-01</internalNodes>
          <leafValues>
            6.1844742298126221e-01 -6.2250137329101563e-01</leafValues></_>
        <_>
          <internalNodes>
            0 -1 24 2.7369230519980192e-04</internalNodes>
          <leafValues>
            -7.4863028526306152e-01 4.1152226924896240e-01</leafValues></_></weakClassifiers></_>
    <!-- stage 10 -->
    <_>
      <maxWeakCount>5</maxWeakCount>
      <stageThreshold>-2.2847349643707275e+00</stageThreshold>
      <weakClassifiers>
        <_>
          <internalNodes>
            0 -1 1 -6.2274843454360962e-02</internalNodes>
          <leafValues>
            1. -9.6078431606292725e-01</leafValues></_>
        <_>
          <internalNodes>
            0 -1 26 1.5125320851802826e-01</internalNodes>
          <leafValues>
            -8.5396015644073486e-01 1.4406660199165344e-01</leafValues></_>
        <_>
          <internalNodes>
            0 -1 6 1.0008399840444326e-04</internalNodes>
          <leafValues>
            4.4926427304744720e-02 -9.5387250185012817e-01</leafValues></_>
        <_>
          <internalNodes>
            0 -1 2 3.6505202297121286e-04</internalNodes>
          <leafValues>
            2.1165838837623596e-01 -8.3689057826995850e-01</leafValues></_>
        <_>
          <internalNodes>
            0 -1 12 2.7712702285498381e-04</internalNodes>
          <leafValues>
            -9.0204894542694092e-01 3.2197356224060059e-01</leafValues></_></weakClassifiers></_>
    <!-- stage 11 -->
    <_>
      <maxWeakCount>4</maxWeakCount>
      <stageThreshold>-2.0868911743164063e+00</stageThreshold>
      <weakClassifiers>
        <_>
          <internalNodes>
            0 -1 11 -3.6441851407289505e-02</internalNodes>
          <leafValues>
            6.0000002384185791e-01 -9.6460175514221191e-01</leafValues></_>
        <_>
          <internalNodes>
            0 -1 23 3.1026804447174072e-01</internalNodes>
          <leafValues>
            -8.6844837665557861e-01 1.9196759164333344e-01</leafValues></_>
        <_>
          <internalNodes>
            0 -1 50 1.3077042996883392e-02</internalNodes>
          <leafValues>
            -5.5623173713684082e-01 6.7876148223876953e-01</leafValues></_>
        <_>
          <internalNodes>
            0 -1 35 4.1455540806055069e-02</internalNodes>
          <leafValues>
            -7.5802528858184814e-01 4.4223979115486145e-01</leafValues></_></weakClassifiers></_>
    <!-- stage 12 -->
    <_>
      <maxWeakCount>3</maxWeakCount>
      <stageThreshold>-1.7045723199844360e+00</stageThreshold>
      <weakClassifiers>
        <_>
          <internalNodes>
            0 -1 3 1.0667765140533447e-01</internalNodes>
          <leafValues>
            -9.6270853281021118e-01 1.</leafValues></_>
        <_>
          <internalNodes>
            0 -1 11 -3.6441851407289505e-02</internalNodes>
          <leafValues>
            8.0283933877944946e-01 -8.1294131278991699e-01</leafValues></_>
        <_>
          <internalNodes>
            0 -1 46 2.2461046464741230e-03</internalNodes>
          <leafValues>
            7.1077585220336914e-02 -9.5652121305465698e-01</leafValues></_></weakClassifiers></_></stages>
  <features>
    <_>
      <rects>
        <_>
          0 2 1 6 -1.</_>
        <_>
          0 4 1 2 3.</_></rects>
      <tilted>0</tilted></_>
    <_>
      <rects>
        <_>
          0 2 21 1 -1.</_>
        <_>
          7 2 7 1 3.</_></rects>
      <tilted>0</tilted></_>
    <_>
      <rects>
        <_>
          0 3 2 3 -1.</_>
        <_>
          0 4 2 1 3.</_></rects>
      <tilted>0</tilted></_>
    <_>
      <rects>
        <_>
          0 3 18 6 -1.</_>
        <_>
          0 5 18 2 3.</_></rects>
      <tilted>0</tilted></_>
    <_>
      <rects>
        <_>
          0 4 3 3 -1.</_>
        <_>
          0 5 3 1 3.</_></rects>
      <tilted>0</tilted></_>
    <_>
      <rects>
        <_>
          0 6 12 17 -1.</_>
        <_>
          6 6 6 17 2.</_></rects>
      <tilted>0</tilted></_>
    <_>
      <rects>
        <_>
          0 8 1 6 -1.</_>
        <_>
          0 11 1 3 2.</_></rects>
      <tilted>0</tilted></_>
    <_>
      <rects>
        <_>
          0 14 9 10 -1.</_>
        <_>
          3 14 3 10 3.</_></rects>
      <tilted>0</tilted></_>
    <_>
      <rects>
        <_>
          0 14 24 4 -1.</_>
        <_>
          8 14 8 4 3.</_></rects>
      <tilted>0</tilted></_>
    <_>
      <rects>
        <_>
          0 14 19 10 -1.</_>
        <_>
          0 19 19 5 2.</_></rects>
      <tilted>0</tilted></_>
    <_>
      <rects>
        <_>
          0 16 21 2 -1.</_>
        <_>
          7 16 7 2 3.</_></rects>
      <tilted>0</tilted></_>
    <_>
      <rects>
        <_>
          0 16 16 1 -1.</_>
        <_>
          8 16 8 1 2.</_></rects>
      <tilted>0</tilted></_>
    <_>
      <rects>
        <_>
          0 20 9 1 -1.</_>
        <_>
          3 20 3 1 3.</_></rects>
      <tilted>0</tilted></_>
    <_>
      <rects>
        <_>
          1 17 21 2 -1.</_>
        <_>
          8 17 7 2 3.</_></rects>
      <tilted>0</tilted></_>
    <_>
      <rects>
        <_>
          2 3 21 2 -1.</_>
        <_>
          9 3 7 2 3.</_></rects>
      <tilted>0</tilted></_>
    <_>
      <rects>
        <_>
          2 3 21 14 -1.</_>
        <_>
          9 3 7 14 3.</_></rects>
      <tilted>0</tilted></_>
    <_>
      <rects>
        <_>
          2 8 18 12 -1.</_>
        <_>
          8 8 6 12 3.</_></rects>
      <tilted>0</tilted></_>
    <_>
      <rects>
        <_>
          2 9 9 1 -1.</_>
        <_>
          5 9 3 1 3.</_></rects>
      <tilted>0</tilted></_>
    <_>
      <rects>
        <_>
          4 1 11 6 -1.</_>
        <_>
          4 3 11 2 3.</_></rects>
      <tilted>0</tilted></_>
    <_>
      <rects>
        <_>
          4 3 17 20 -1.</_>
        <_>
          4 13 17 10 2.</_></rects>
      <tilted>0</tilted></_>
    <_>
      <rects>
        <_>
          5 1 15 6 -1.</_>
        <_>
          5 4 15 3 2.</_></rects>
      <tilted>0</tilted></_>
    <_>
      <rects>
        <_>
          5 3 12 6 -1.</_>
        <_>
          5 5 12 2 3.</_></rects>
      <tilted>0</tilted></_>
    <_>
      <rects>
        <_>
          6 2 3 22 -1.</_>
        <_>
          6 13 3 11 2.</_></rects>
      <tilted>0</tilted></_>
    <_>
      <rects>
        <_>
          6 2 10 22 -1.</_>
        <_>
          6 13 10 11 2.</_></rects>
      <tilted>0</tilted></_>
    <_>
      <rects>
        <_>
          6 4 2 7 -1.</_>
        <_>
          7 4 1 7 2.</_></rects>
      <tilted>0</tilted></_>
    <_>
      <rects>
        <_>
          6 4 18 4 -1.</_>
        <_>
          15 4 9 4 2.</_></rects>
      <tilted>0</tilted></_>
    <_>
      <rects>
        <_>
          6 12 14 10 -1.</_>
        <_>
          6 17 14 5 2.</_></rects>
      <tilted>0</tilted></_>
    <_>
      <rects>
        <_>
          7 0 10 6 -1.</_>
        <_>
          7 2 10 2 3.</_></rects>
      <tilted>0</tilted></_>
    <_>
      <rects>
        <_>
          7 11 2 1 -1.</_>
        <_>
          8 11 1 1 2.</_></rects>
      <tilted>0</tilted></_>
    <_>
      <rects>
        <_>
          8 4 4 3 -1.</_>
        <_>
          8 5 4 1 3.</_></rects>
      <tilted>0</tilted></_>
    <_>
      <rects>
        <_>
          8 6 7 6 -1.</_>
        <_>
          8 8 7 2 3.</_></rects>
      <tilted>0</tilted></_>
    <_>
      <rects>
        <_>
          9 4 1 3 -1.</_>
        <_>
          9 5 1 1 3.</_></rects>
      <tilted>0</tilted></_>
    <_>
      <rects>
        <_>
          9 6 2 3 -1.</_>
        <_>
          9 7 2 1 3.</_></rects>
      <tilted>0</tilted></_>
    <_>
      <rects>
        <_>
          9 8 10 3 -1.</_>
        <_>
          9 9 10 1 3.</_></rects>
      <tilted>0</tilted></_>
    <_>
      <rects>
        <_>
          9 11 3 1 -1.</_>
        <_>
          10 11 1 1 3.</_></rects>
      <tilted>0</tilted></_>
    <_>
      <rects>
        <_>
          10 0 14 6 -1.</_>
        <_>
          17 0 7 6 2.</_></rects>
      <tilted>0</tilted></_>
    <_>
      <rects>
        <_>
          10 0 9 21 -1.</_>
        <_>
          10 7 9 7 3.</_></rects>
      <tilted>0</tilted></_>
    <_>
      <rects>
        <_>
          10 5 2 2 -1.</_>
        <_>
          10 6 2 1 2.</_></rects>
      <tilted>0</tilted></_>
    <_>
      <rects>
        <_>
          10 12 4 6 -1.</_>
        <_>
          10 15 4 3 2.</_></rects>
      <tilted>0</tilted></_>
    <_>
      <rects>
        <_>
          11 0 7 4 -1.</_>
        <_>
          11 2 7 2 2.</_></rects>
      <tilted>0</tilted></_>
    <_>
      <rects>
        <_>
          11 4 6 20 -1.</_>
        <_>
          11 14 6 10 2.</_></rects>
      <tilted>0</tilted></_>
    <_>
      <rects>
        <_>
          11 9 9 10 -1.</_>
        <_>
          11 14 9 5 2.</_></rects>
      <tilted>0</tilted></_>
    <_>
      <rects>
        <_>
          15 1 8 13 -1.</_>
        <_>
          19 1 4 13 2.</_></rects>
      <tilted>0</tilted></_>
    <_>
      <rects>
        <_>
          15 2 2 2 -1.</_>
        <_>
          15 3 2 1 2.</_></rects>
      <tilted>0</tilted></_>
    <_>
      <rects>
        <_>
          15 7 6 6 -1.</_>
        <_>
          17 7 2 6 3.</_></rects>
      <tilted>0</tilted></_>
    <_>
      <rects>
        <_>
          15 10 2 3 -1.</_>
        <_>
          16 10 1 3 2.</_></rects>
      <tilted>0</tilted></_>
    <_>
      <rects>
        <_>
          16 8 6 6 -1.</_>
        <_>
          16 10 6 2 3.</_></rects>
      <tilted>0</tilted></_>
    <_>
      <rects>
        <_>
          16 9 2 6 -1.</_>
        <_>
          16 9 1 3 2.</_>
        <_>
          17 12 1 3 2.</_></rects>
      <tilted>0</tilted></_>
    <_>
      <rects>
        <_>
          19 8 3 6 -1.</_>
        <_>
          19 10 3 2 3.</_></rects>
      <tilted>0</tilted></_>
    <_>
      <rects>
        <_>
          21 1 1 8 -1.</_>
        <_>
          21 5 1 4 2.</_></rects>
      <tilted>0</tilted></_>
    <_>
      <rects>
        <_>
          21 15 3 9 -1.</_>
        <_>
          22 15 1 9 3.</_></rects>
      <tilted>0</tilted></_></features></cascade>
</opencv_storage>
